{"learner":{"attributes":{"scikit_learn":"{\"_estimator_type\": \"classifier\"}"},"feature_names":[],"feature_types":[],"gradient_booster":{"model":{"gbtree_model_param":{"num_parallel_tree":"1","num_trees":"300"},"iteration_indptr":[0,1,2,3,4,5,6,7,8,9,10,11,12,13,14,15,16,17,18,19,20,21,22,23,24,25,26,27,28,29,30,31,32,33,34,35,36,37,38,39,40,41,42,43,44,45,46,47,48,49,50,51,52,53,54,55,56,57,58,59,60,61,62,63,64,65,66,67,68,69,70,71,72,73,74,75,76,77,78,79,80,81,82,83,84,85,86,87,88,89,90,91,92,93,94,95,96,97,98,99,100,101,102,103,104,105,106,107,108,109,110,111,112,113,114,115,116,117,118,119,120,121,122,123,124,125,126,127,128,129,130,131,132,133,134,135,136,137,138,139,140,141,142,143,144,145,146,147,148,149,150,151,152,153,154,155,156,157,158,159,160,161,162,163,164,165,166,167,168,169,170,171,172,173,174,175,176,177,178,179,180,181,182,183,184,185,186,187,188,189,190,191,192,193,194,195,196,197,198,199,200,201,202,203,204,205,206,207,208,209,210,211,212,213,214,215,216,217,218,219,220,221,222,223,224,225,226,227,228,229,230,231,232,233,234,235,236,237,238,239,240,241,242,243,244,245,246,247,248,249,250,251,252,253,254,255,256,257,258,259,260,261,262,263,264,265,266,267,268,269,270,271,272,273,274,275,276,277,278,279,280,281,282,283,284,285,286,287,288,289,290,291,292,293,294,295,296,297,298,299,300],"tree_info":[0,0,0,0,0,0,0,0,0,0,0,0,0,0,0,0,0,0,0,0,0,0,0,0,0,0,0,0,0,0,0,0,0,0,0,0,0,0,0,0,0,0,0,0,0,0,0,0,0,0,0,0,0,0,0,0,0,0,0,0,0,0,0,0,0,0,0,0,0,0,0,0,0,0,0,0,0,0,0,0,0,0,0,0,0,0,0,0,0,0,0,0,0,0,0,0,0,0,0,0,0,0,0,0,0,0,0,0,0,0,0,0,0,0,0,0,0,0,0,0,0,0,0,0,0,0,0,0,0,0,0,0,0,0,0,0,0,0,0,0,0,0,0,0,0,0,0,0,0,0,0,0,0,0,0,0,0,0,0,0,0,0,0,0,0,0,0,0,0,0,0,0,0,0,0,0,0,0,0,0,0,0,0,0,0,0,0,0,0,0,0,0,0,0,0,0,0,0,0,0,0,0,0,0,0,0,0,0,0,0,0,0,0,0,0,0,0,0,0,0,0,0,0,0,0,0,0,0,0,0,0,0,0,0,0,0,0,0,0,0,0,0,0,0,0,0,0,0,0,0,0,0,0,0,0,0,0,0,0,0,0,0,0,0,0,0,0,0,0,0,0,0,0,0,0,0,0,0,0,0,0,0,0,0,0,0,0,0,0,0,0,0,0,0,0,0,0,0,0,0],"trees":[{"base_weights":[-2.0540264E-1,-5.8955956E-1,7.532483E-1,1.1000897E0,-6.493417E-1,-4.5326054E-2,1.9894145E0,-1.0267957E-1,1.8336587E0,-7.7091074E-1,-1.4957727E-1,-6.2743276E-1,7.0243317E-1,1.3470553E0,2.9783432E0,2.03385E0,9.415365E-3,-8.117947E-1,-3.0497444E-1,-5.3831494E-1,6.1401784E-1,-8.208792E-1,4.296864E-2,-1.4098927E-1,2.1790676E0,2.321217E0,8.005096E-1,3.180096E-1,9.7467214E-1,9.163685E-1,2.2814079E-1,-8.694626E-1,-4.6856484E-1,-7.8812987E-1,5.3755933E-1,-8.553458E-1,4.532998E-2,1.2145877E0,-4.439977E-1,-9.025934E-1,8.8227354E-2,1.6974862E0,-5.466624E-1,7.472195E-1,-4.851096E-1,3.0177495E-1,1.4800525E0,3.0778463E0,1.1725179E0,4.1267577E-1,1.7653216E0,1.0947616E-1,1.8014838E-1,1.566876E-1,-2.507104E-2,-9.8219836E-1,-6.1467105E-1,-5.307221E-1,1.3103724E-1,1.102817E-3,-9.277557E-1,1.0923003E0,1.2556213E-3,-4.4924828E-1,-1.1801012E0,-3.5369295E-1,7.6610553E-1,7.0596564E-1,2.732982E0,1.3448961E-1,-8.407314E-1,1.8672709E-1,-9.655328E-1,2.1923499E-1,2.020042E-2,1.2001892E-3,-8.698576E-1,1.5877986E0,-7.27569E-2,-8.5846715E-2,-8.2338417E-1,1.8671904E0,2.4449515E-1,3.489512E-1,1.0859131E0,-2.1182531E-2,2.2849551E-1,1.1755565E0,-6.8726435E-2,5.405099E-1,3.307954E-1,8.1926085E-2,-6.540736E-2,-9.903262E-1,2.020042E-2,-2.886753E-2,-8.26436E-1,1.10743344E-1,-5.930658E-1,-8.1397444E-2,9.339263E-2,-1.023525E0,2.020042E-2,1.1917325E-1,1.8841926E0,7.604341E-2,-4.5235893E-1,1.3103724E-1,-6.1916345E-1,-4.4727053E-2,-1.2210236E-1,-7.647371E-1,3.7872344E-1,-7.03425E-2,1.109721E0,-9.273257E-2,1.0711547E0,3.1869715E-1,9.339263E-2,6.499347E-1,-7.8210756E-2,-1.6296208E-2,-9.256177E-2,-7.8210756E-2,1.3103724E-1,2.020042E-2,-1.0001613E0,1.3103724E-1,-5.752232E-1,-9.441625E-1,-2.507104E-2,2.3498705E-1,5.5369425E-1,-9.092376E-2,7.437535E-1,-9.967261E-2,3.6012563E-1,-3.2223892E-1,-1.1262401E-1,1.1876556E0,2.4350262E0,-4.9718168E-2,1.10743344E-1,3.2814942E-2,1.3103724E-1,-9.5874004E-2,1.8014838E-1,1.5211478E0,1.8672709E-1,-1.0174938E-1,3.1477302E-1,1.5792931E0,-6.4881253E-1,-1.0668647E0,-8.6539626E-1,1.0258691E0,-3.4524238E-1,-9.4743186E-1,5.405099E-1,-6.59081E-1,3.84905E-1,-1.0686095E0,-2.507104E-2,-4.4727053E-2,8.1926085E-2,2.4655771E-1,3.2814942E-2,-7.290742E-1,3.2814942E-2,3.7872344E-1,-1.0375694E0,-1.0934366E-1,-9.865531E-2,1.7736991E-1,-3.9241457E-1,1.6857262E0,-2.1600282E-2,2.1363197E-1,6.4672816E-1,-2.7290928E-1,1.8014838E-1,-1.0356848E0,9.415365E-3,3.2814942E-2,-9.273257E-2,-1.0435869E-1,-3.257327E-2,8.1926085E-2,9.415365E-3,-3.257327E-2,1.560148E-1,1.4729686E0,-5.5095965E-1,-9.5874004E-2,4.652403E-1,1.8278605E-1,2.2617285E-1,2.951456E-1,6.547188E-2,7.702406E-1,2.6134717E-1,7.838815E-2,-6.540736E-2,1.5720011E-1,-7.52911E-2,2.020042E-2,2.1935855E-1,-7.8210756E-2,-1.6296208E-2,-1.1155959E0,-7.5727457E-1,-6.269118E-1,-1.0254761E0,1.2586237E-1,2.1196567E-1,-8.3241606E-1,6.586766E-2,-1.0517434E0,-5.655481E-1,-2.5798756E-1,2.2925954E-1,-8.16482E-1,-2.7712414E-1,-3.9061032E-2,1.10743344E-1,-1.1771089E-1,-5.1793694E-1,-8.669607E-2,-1.6296208E-2,-2.843626E-1,1.2271372E-1,-1.1738693E-1,-8.056667E-3,5.3740967E-2,-7.8210756E-2,6.547188E-2,-9.273257E-2,3.2814942E-2,1.9482414E-1,-2.8810792E-2,1.4913548E0,-7.03425E-2,3.2814942E-2,-1.1025143E-1,-4.5345092E-1,1.916865E-1,3.923842E-2,1.0947616E-1,-9.437537E-2,-6.540736E-2,1.1753787E-1,1.3103724E-1,-5.8106667E-1,1.102817E-3,1.7736991E-1,-3.765118E-1,1.3103724E-1,-5.5095965E-1,-1.138059E0,3.84905E-1,-9.691099E-1,-2.7751878E-1,-1.18838005E-1,-5.851378E-1,-1.1629375E-1,-7.03425E-2,6.515629E-1,2.861372E-2,-1.1191379E-1,-2.1035215E-1,1.1753787E-1,-4.727492E-1,-1.1341528E0,6.5063673E-1,-8.761014E-1,6.528411E-2,-9.092376E-2,-4.889928E-1,-9.8148096E-1,-9.0323275E-1,4.7141567E-1,3.2814942E-2,-8.892241E-2,-7.456191E-2,1.9254591E-2,1.019545E-1,-5.2856475E-1,2.0901231E-1,-2.507104E-2,-1.0435869E-1,1.3103724E-1,8.1926085E-2,-6.540736E-2,-7.03425E-2,-1.6296208E-2,-5.414818E-1,8.1926085E-2,5.5150576E-2,-9.5874004E-2,-9.092376E-2,-3.1478483E-2,-1.16915725E-1,-7.267333E-1,-1.6296208E-2,6.528411E-2,-2.160028E-1,-1.0609428E-1,-9.081369E-1,3.0650792E-1,-1.1415961E-1,4.608824E-1,-2.507104E-2,1.3103724E-1,-6.449187E-1,9.597204E-2,-9.351354E-1,1.10743344E-1,-1.1549523E0,-1.6296208E-2,-3.9061032E-2,1.560148E-1,-1.0087597E0,3.2814942E-2,-8.7028855E-1,7.437535E-1,-1.0867064E0,-4.5235893E-1,-1.6296208E-2,-9.8311347E-1,1.2969835E0,-9.092376E-2,-9.967261E-2,6.547188E-2,-1.6296208E-2,-6.540736E-2,-5.1793694E-1,8.8227354E-2,8.1926085E-2,-7.456191E-2,2.861372E-2,-9.8986015E-2,-6.540736E-2,3.2814942E-2,-1.1415961E-1,-3.1478484E-3,7.590809E-2,-6.007743E-2,1.736871E-1,-8.892241E-2,3.5248126E-3,-9.049407E-2,-1.6296208E-2,-1.0511901E-1,-7.1865365E-2,-1.2180551E-1,-1.1565157E-1,-1.5231788E-2,-1.0297916E-1,9.415365E-3,9.415365E-3,1.10743344E-1,-1.1857883E-1,-5.7522323E-2,5.1404E-2,-9.437537E-2,-1.0883596E-1,-1.6296208E-2,2.1196567E-1,2.6110787E-2,3.2814942E-2,-8.892241E-2],"categories":[],"categories_nodes":[],"categories_segments":[],"categories_sizes":[],"default_left":[0,0,0,0,0,0,0,0,0,0,0,0,0,0,0,0,0,0,0,0,0,0,0,0,0,0,0,0,0,0,0,0,0,0,0,0,0,0,0,0,0,0,0,0,0,0,0,0,0,0,0,0,0,0,0,0,0,0,0,0,0,0,0,0,0,0,0,0,0,0,0,0,0,0,0,0,0,0,0,0,0,0,0,0,0,0,0,0,0,0,0,0,0,0,0,0,0,0,0,0,0,0,0,0,0,0,0,0,0,0,0,0,0,0,0,0,0,0,0,0,0,0,0,0,0,0,0,0,0,0,0,0,0,0,0,0,0,0,0,0,0,0,0,0,0,0,0,0,0,0,0,0,0,0,0,0,0,0,0,0,0,0,0,0,0,0,0,0,0,0,0,0,0,0,0,0,0,0,0,0,0,0,0,0,0,0,0,0,0,0,0,0,0,0,0,0,0,0,0,0,0,0,0,0,0,0,0,0,0,0,0,0,0,0,0,0,0,0,0,0,0,0,0,0,0,0,0,0,0,0,0,0,0,0,0,0,0,0,0,0,0,0,0,0,0,0,0,0,0,0,0,0,0,0,0,0,0,0,0,0,0,0,0,0,0,0,0,0,0,0,0,0,0,0,0,0,0,0,0,0,0,0,0,0,0,0,0,0,0,0,0,0,0,0,0,0,0,0,0,0,0,0,0,0,0,0,0,0,0,0,0,0,0,0,0,0,0,0,0,0,0,0,0,0,0,0,0,0,0,0,0,0,0,0,0,0,0,0,0,0,0,0,0,0,0,0,0,0,0,0,0,0,0,0,0,0,0,0,0,0,0,0,0,0,0,0,0,0,0,0,0],"id":0,"left_children":[1,3,5,7,9,11,13,-1,15,17,19,21,23,25,27,29,-1,31,33,35,37,39,41,43,45,47,49,-1,51,53,-1,55,57,59,61,63,65,67,69,71,-1,73,75,77,79,-1,81,83,85,87,89,91,-1,-1,-1,93,95,97,-1,99,101,103,105,107,109,111,113,115,117,119,121,123,125,-1,-1,127,129,131,133,135,137,139,141,-1,143,145,-1,147,149,151,-1,-1,-1,153,-1,155,157,-1,159,-1,-1,161,-1,163,165,-1,167,-1,169,-1,-1,171,173,-1,175,-1,177,-1,-1,179,-1,-1,-1,-1,-1,-1,181,-1,183,185,-1,-1,187,-1,189,-1,191,193,-1,195,197,-1,-1,-1,-1,-1,-1,199,201,-1,203,205,207,209,211,213,215,217,219,221,223,225,-1,-1,-1,-1,-1,227,-1,229,231,-1,233,-1,235,237,-1,-1,239,241,-1,243,-1,-1,-1,-1,-1,-1,-1,-1,-1,245,247,-1,249,251,-1,-1,-1,253,-1,-1,-1,-1,255,-1,-1,-1,-1,257,259,261,263,265,-1,267,269,271,273,275,-1,277,279,-1,-1,-1,281,-1,-1,283,-1,-1,-1,-1,-1,-1,-1,-1,-1,285,287,-1,-1,-1,289,-1,-1,291,-1,-1,-1,-1,293,295,-1,297,-1,299,301,303,305,307,-1,309,-1,-1,311,-1,-1,313,-1,315,317,319,321,-1,-1,323,325,327,329,-1,-1,-1,-1,-1,331,-1,-1,-1,-1,-1,-1,-1,-1,333,-1,335,-1,-1,337,-1,339,-1,-1,341,-1,343,345,-1,347,-1,-1,349,-1,351,-1,353,-1,-1,-1,355,-1,357,359,361,363,-1,365,367,-1,-1,-1,-1,-1,369,-1,-1,-1,-1,-1,-1,-1,-1,-1,-1,-1,-1,-1,-1,-1,-1,-1,-1,-1,-1,-1,-1,-1,-1,-1,-1,-1,-1,-1,-1,-1,-1,-1,-1,-1],"loss_changes":[2.4949028E2,4.9537903E1,1.9150792E2,2.8232311E1,2.828572E1,5.2143265E1,4.4345795E1,0E0,4.306385E0,6.9103546E0,2.7848469E1,8.76535E0,6.564789E1,2.3684502E1,8.684235E0,1.100357E0,0E0,6.4182434E0,1.3414737E1,1.1503994E1,2.0707596E1,8.073868E0,1.6561087E1,1.0855784E1,6.7505875E0,1.0919418E1,1.1342247E1,0E0,2.7418797E0,3.2498238E0,0E0,7.8432007E0,6.4202585E0,2.280756E0,3.635825E0,4.771883E0,6.8169217E0,1.3914152E1,2.9188814E0,3.6352348E0,0E0,2.8533564E0,2.2269256E0,6.9945493E0,3.3531857E0,0E0,5.4739094E0,3.9698563E0,1.1008207E1,9.010333E0,1.5111465E1,2.2009594E0,0E0,0E0,0E0,2.1461945E0,1.1497673E1,5.8385315E0,0E0,3.8840506E0,2.108758E0,4.4055123E0,2.829403E0,6.635244E0,1.0535622E-1,4.9060287E0,5.035384E0,1.0963534E1,9.435196E-1,3.265375E0,2.7432442E-1,4.9335585E0,2.1346664E0,0E0,0E0,5.027185E0,1.2710047E-1,2.6172047E0,4.7798805E0,5.53573E0,1.7022924E0,6.9254684E-1,3.1801827E0,0E0,9.257698E-2,1.0223735E1,0E0,2.9495134E0,6.0881186E0,8.660956E0,0E0,0E0,0E0,9.985657E-1,0E0,8.928741E0,1.1788742E1,0E0,3.4512959E0,0E0,0E0,3.024578E-1,0E0,1.8587644E0,2.1266298E0,0E0,1.3504097E0,0E0,8.093164E0,0E0,0E0,2.1150494E0,7.34503E0,0E0,5.8753366E0,0E0,5.0041504E0,0E0,0E0,5.041372E0,0E0,0E0,0E0,0E0,0E0,0E0,1.9087486E0,0E0,1.7759584E0,7.197571E-2,0E0,0E0,3.3996654E-1,0E0,3.6431327E0,0E0,1.0230204E1,3.717275E0,0E0,6.2577486E0,1.8450832E0,0E0,0E0,0E0,0E0,0E0,0E0,3.6234713E0,2.315459E0,0E0,6.0290327E0,2.5946522E0,1.05071664E-1,9.706421E-1,2.4742546E0,5.81788E0,4.1636257E0,1.9147491E0,9.238883E0,2.585289E0,2.541212E0,2.9619026E-1,0E0,0E0,0E0,0E0,0E0,1.7943168E-1,0E0,3.826199E0,1.6352682E0,0E0,2.3565516E0,0E0,3.2953887E0,1.19421E0,0E0,0E0,6.6244016E0,1.0705462E0,0E0,1.259243E0,0E0,0E0,0E0,0E0,0E0,0E0,0E0,0E0,0E0,1.3842878E0,1.6171596E0,0E0,3.6227517E0,4.448933E0,0E0,0E0,0E0,4.2353597E0,0E0,0E0,0E0,0E0,4.7311697E0,0E0,0E0,0E0,0E0,6.648712E-1,5.0860023E0,6.6082993E0,2.181572E0,2.400074E0,0E0,3.354908E0,3.941044E0,1.7693825E0,6.4920053E0,3.6453595E0,0E0,1.2818336E0,7.5314336E0,0E0,0E0,0E0,1.6367277E0,0E0,0E0,1.0853523E0,0E0,0E0,0E0,0E0,0E0,0E0,0E0,0E0,0E0,4.4106035E0,5.8905144E0,0E0,0E0,0E0,7.9810114E0,0E0,0E0,2.2009594E0,0E0,0E0,0E0,0E0,5.138278E-2,2.2675009E0,0E0,2.3441849E0,0E0,1.0574903E0,3.9137268E-1,6.588001E-1,9.2688847E-1,8.7880745E0,0E0,8.245318E0,0E0,0E0,2.257493E0,0E0,0E0,5.957148E0,0E0,6.6874223E0,6.5180206E-1,4.1732516E0,2.3944492E0,0E0,0E0,6.7184567E0,6.602497E-1,3.482647E-1,9.799273E0,0E0,0E0,0E0,0E0,0E0,3.7896323E0,0E0,0E0,0E0,0E0,0E0,0E0,0E0,0E0,2.4350822E-2,0E0,3.3868358E0,0E0,0E0,2.6873288E0,0E0,2.80506E0,0E0,0E0,9.4702256E-1,0E0,2.2894526E0,5.6886926E0,0E0,1.0705017E1,0E0,0E0,1.4915774E0,0E0,4.135537E-1,0E0,2.4100494E-1,0E0,0E0,0E0,1.327199E0,0E0,1.6853876E0,7.439724E-1,1.5628433E-1,2.9283028E0,0E0,4.754243E-1,3.8308659E0,0E0,0E0,0E0,0E0,0E0,1.6367277E0,0E0,0E0,0E0,0E0,0E0,0E0,0E0,0E0,0E0,0E0,0E0,0E0,0E0,0E0,0E0,0E0,0E0,0E0,0E0,0E0,0E0,0E0,0E0,0E0,0E0,0E0,0E0,0E0,0E0,0E0,0E0,0E0,0E0,0E0,0E0],"parents":[2147483647,0,0,1,1,2,2,3,3,4,4,5,5,6,6,8,8,9,9,10,10,11,11,12,12,13,13,14,14,15,15,17,17,18,18,19,19,20,20,21,21,22,22,23,23,24,24,25,25,26,26,28,28,29,29,31,31,32,32,33,33,34,34,35,35,36,36,37,37,38,38,39,39,41,41,42,42,43,43,44,44,46,46,47,47,48,48,49,49,50,50,51,51,55,55,56,56,57,57,59,59,60,60,61,61,62,62,63,63,64,64,65,65,66,66,67,67,68,68,69,69,70,70,71,71,72,72,75,75,76,76,77,77,78,78,79,79,80,80,81,81,82,82,84,84,85,85,87,87,88,88,89,89,93,93,95,95,96,96,98,98,101,101,103,103,104,104,106,106,108,108,111,111,112,112,114,114,116,116,119,119,126,126,128,128,129,129,132,132,134,134,136,136,137,137,139,139,140,140,147,147,148,148,150,150,151,151,152,152,153,153,154,154,155,155,156,156,157,157,158,158,159,159,160,160,161,161,167,167,169,169,170,170,172,172,174,174,175,175,178,178,179,179,181,181,191,191,192,192,194,194,195,195,199,199,204,204,209,209,210,210,211,211,212,212,213,213,215,215,216,216,217,217,218,218,219,219,221,221,222,222,226,226,229,229,239,239,240,240,244,244,247,247,252,252,253,253,255,255,257,257,258,258,259,259,260,260,261,261,263,263,266,266,269,269,271,271,272,272,273,273,274,274,277,277,278,278,279,279,280,280,286,286,295,295,297,297,300,300,302,302,305,305,307,307,308,308,310,310,313,313,315,315,317,317,321,321,323,323,324,324,325,325,326,326,328,328,329,329,335,335],"right_children":[2,4,6,8,10,12,14,-1,16,18,20,22,24,26,28,30,-1,32,34,36,38,40,42,44,46,48,50,-1,52,54,-1,56,58,60,62,64,66,68,70,72,-1,74,76,78,80,-1,82,84,86,88,90,92,-1,-1,-1,94,96,98,-1,100,102,104,106,108,110,112,114,116,118,120,122,124,126,-1,-1,128,130,132,134,136,138,140,142,-1,144,146,-1,148,150,152,-1,-1,-1,154,-1,156,158,-1,160,-1,-1,162,-1,164,166,-1,168,-1,170,-1,-1,172,174,-1,176,-1,178,-1,-1,180,-1,-1,-1,-1,-1,-1,182,-1,184,186,-1,-1,188,-1,190,-1,192,194,-1,196,198,-1,-1,-1,-1,-1,-1,200,202,-1,204,206,208,210,212,214,216,218,220,222,224,226,-1,-1,-1,-1,-1,228,-1,230,232,-1,234,-1,236,238,-1,-1,240,242,-1,244,-1,-1,-1,-1,-1,-1,-1,-1,-1,246,248,-1,250,252,-1,-1,-1,254,-1,-1,-1,-1,256,-1,-1,-1,-1,258,260,262,264,266,-1,268,270,272,274,276,-1,278,280,-1,-1,-1,282,-1,-1,284,-1,-1,-1,-1,-1,-1,-1,-1,-1,286,288,-1,-1,-1,290,-1,-1,292,-1,-1,-1,-1,294,296,-1,298,-1,300,302,304,306,308,-1,310,-1,-1,312,-1,-1,314,-1,316,318,320,322,-1,-1,324,326,328,330,-1,-1,-1,-1,-1,332,-1,-1,-1,-1,-1,-1,-1,-1,334,-1,336,-1,-1,338,-1,340,-1,-1,342,-1,344,346,-1,348,-1,-1,350,-1,352,-1,354,-1,-1,-1,356,-1,358,360,362,364,-1,366,368,-1,-1,-1,-1,-1,370,-1,-1,-1,-1,-1,-1,-1,-1,-1,-1,-1,-1,-1,-1,-1,-1,-1,-1,-1,-1,-1,-1,-1,-1,-1,-1,-1,-1,-1,-1,-1,-1,-1,-1,-1],"split_conditions":[1E0,2.3E1,1E0,3E0,1E0,1E0,1E0,-1.0267957E-1,2.1397E4,1E0,1E0,5E0,1E0,3.1E1,4.2E1,1E0,9.415365E-3,1E0,1E0,1E0,1E0,5.8E1,3.6E1,2.2104E4,1E0,4E0,1E0,3.180096E-1,4E0,1.7593E4,2.2814079E-1,1E0,5.8E1,2.0774E4,3.1E1,1E0,1E0,1E0,1E0,1E0,8.8227354E-2,2E0,2.4074E4,1E0,1E0,3.0177495E-1,4E0,1E0,1E0,3E0,4.2E1,1.7942E4,1.8014838E-1,1.566876E-1,-2.507104E-2,3.8418E4,3.3E1,2.213E4,1.3103724E-1,1E0,3.4272E4,1E0,1E0,1E0,2.9E1,1E0,2E0,2.5E1,3.2E1,3.8E1,1.7741E4,1E0,2.8E1,2.1923499E-1,2.020042E-2,1E0,5.9E1,1E0,1E0,2.3987E4,2.3936E4,1E0,1E0,3.489512E-1,1E0,5E0,2.2849551E-1,4.1E1,3.6E1,3.7E1,3.307954E-1,8.1926085E-2,-6.540736E-2,4E0,2.020042E-2,1E0,5.5E1,1.10743344E-1,3E0,-8.1397444E-2,9.339263E-2,5.3E1,2.020042E-2,2.121E4,1E0,7.604341E-2,4.6E1,1.3103724E-1,3.4E1,-4.4727053E-2,-1.2210236E-1,1E0,3E0,-7.03425E-2,2E0,-9.273257E-2,1E0,3.1869715E-1,9.339263E-2,1E0,-7.8210756E-2,-1.6296208E-2,-9.256177E-2,-7.8210756E-2,1.3103724E-1,2.020042E-2,3.791E4,1.3103724E-1,3.8E1,1E0,-2.507104E-2,2.3498705E-1,3.8E1,-9.092376E-2,4E0,-9.967261E-2,2.588E4,3.2E1,-1.1262401E-1,4.2E1,4.6E1,-4.9718168E-2,1.10743344E-1,3.2814942E-2,1.3103724E-1,-9.5874004E-2,1.8014838E-1,3.8E1,1E0,-1.0174938E-1,1E0,3.5E1,1E0,2.7058E4,1E0,1E0,1E0,1E0,1E0,4.4E1,3E0,1E0,-2.507104E-2,-4.4727053E-2,8.1926085E-2,2.4655771E-1,3.2814942E-2,5E0,3.2814942E-2,1E0,3.2099E4,-1.0934366E-1,1E0,1.7736991E-1,1E0,1E0,-2.1600282E-2,2.1363197E-1,3.4E1,3E0,1.8014838E-1,1E0,9.415365E-3,3.2814942E-2,-9.273257E-2,-1.0435869E-1,-3.257327E-2,8.1926085E-2,9.415365E-3,-3.257327E-2,1.560148E-1,1E0,4E0,-9.5874004E-2,3E0,2.1006E4,2.2617285E-1,2.951456E-1,6.547188E-2,1E0,2.6134717E-1,7.838815E-2,-6.540736E-2,1.5720011E-1,1E0,2.020042E-2,2.1935855E-1,-7.8210756E-2,-1.6296208E-2,2.6E1,2.8802E4,4E1,1E0,2.9E1,2.1196567E-1,2.6E1,2.213E4,3.5E1,1E0,2.3858E4,2.2925954E-1,2.5648E4,1E0,-3.9061032E-2,1.10743344E-1,-1.1771089E-1,2.2547E4,-8.669607E-2,-1.6296208E-2,1E0,1.2271372E-1,-1.1738693E-1,-8.056667E-3,5.3740967E-2,-7.8210756E-2,6.547188E-2,-9.273257E-2,3.2814942E-2,1.9482414E-1,2.7E1,1E0,-7.03425E-2,3.2814942E-2,-1.1025143E-1,1E0,1.916865E-1,3.923842E-2,1E0,-9.437537E-2,-6.540736E-2,1.1753787E-1,1.3103724E-1,1E0,1E0,1.7736991E-1,4E0,1.3103724E-1,1E0,5E1,1E0,4.1E1,1E0,-1.18838005E-1,1E0,-1.1629375E-1,-7.03425E-2,1E0,2.861372E-2,-1.1191379E-1,1E0,1.1753787E-1,5E0,3.7389E4,1E0,1E0,6.528411E-2,-9.092376E-2,2.4714E4,4E0,2.4658E4,5.3E1,3.2814942E-2,-8.892241E-2,-7.456191E-2,1.9254591E-2,1.019545E-1,1E0,2.0901231E-1,-2.507104E-2,-1.0435869E-1,1.3103724E-1,8.1926085E-2,-6.540736E-2,-7.03425E-2,-1.6296208E-2,3.5E1,8.1926085E-2,1E0,-9.5874004E-2,-9.092376E-2,2.0891E4,-1.16915725E-1,1E0,-1.6296208E-2,6.528411E-2,3E0,-1.0609428E-1,1E0,2E0,-1.1415961E-1,1E0,-2.507104E-2,1.3103724E-1,2.8E1,9.597204E-2,1E0,1.10743344E-1,1.8544E4,-1.6296208E-2,-3.9061032E-2,1.560148E-1,4.3E1,3.2814942E-2,2E0,3.7E1,2.919E4,3.3E1,-1.6296208E-2,1E0,4E0,-9.092376E-2,-9.967261E-2,6.547188E-2,-1.6296208E-2,-6.540736E-2,3E0,8.8227354E-2,8.1926085E-2,-7.456191E-2,2.861372E-2,-9.8986015E-2,-6.540736E-2,3.2814942E-2,-1.1415961E-1,-3.1478484E-3,7.590809E-2,-6.007743E-2,1.736871E-1,-8.892241E-2,3.5248126E-3,-9.049407E-2,-1.6296208E-2,-1.0511901E-1,-7.1865365E-2,-1.2180551E-1,-1.1565157E-1,-1.5231788E-2,-1.0297916E-1,9.415365E-3,9.415365E-3,1.10743344E-1,-1.1857883E-1,-5.7522323E-2,5.1404E-2,-9.437537E-2,-1.0883596E-1,-1.6296208E-2,2.1196567E-1,2.6110787E-2,3.2814942E-2,-8.892241E-2],"split_indices":[23,31,11,36,18,4,21,0,38,6,11,36,21,31,31,37,0,14,11,24,9,31,31,38,16,36,0,0,33,38,0,21,31,38,31,2,21,0,20,2,0,37,38,9,9,0,33,0,9,36,31,38,0,0,0,38,31,38,0,24,38,24,2,4,31,4,36,31,31,31,38,14,31,0,0,12,31,24,37,38,38,8,9,0,7,36,0,31,31,31,0,0,0,36,0,16,31,0,37,0,0,31,0,38,9,0,31,0,31,0,0,0,36,0,37,0,2,0,0,7,0,0,0,0,0,0,38,0,31,12,0,0,31,0,36,0,38,31,0,31,31,0,0,0,0,0,0,31,9,0,2,31,7,38,7,7,11,4,11,31,36,0,0,0,0,0,0,36,0,21,38,0,9,0,12,12,0,0,31,36,0,17,0,0,0,0,0,0,0,0,0,7,33,0,36,38,0,0,0,8,0,0,0,0,17,0,0,0,0,31,38,31,2,31,0,31,38,31,16,38,0,38,24,0,0,0,38,0,0,7,0,0,0,0,0,0,0,0,0,31,20,0,0,0,14,0,0,0,0,0,0,0,24,18,0,36,0,24,31,2,31,2,0,0,0,0,9,0,0,0,0,36,38,24,11,0,0,38,33,38,31,0,0,0,0,0,6,0,0,0,0,0,0,0,0,31,0,24,0,0,38,0,16,0,0,36,0,9,37,0,12,0,0,31,0,16,0,38,0,0,0,31,0,37,31,38,31,0,0,36,0,0,0,0,0,33,0,0,0,0,0,0,0,0,0,0,0,0,0,0,0,0,0,0,0,0,0,0,0,0,0,0,0,0,0,0,0,0,0,0,0],"split_type":[0,0,0,0,0,0,0,0,0,0,0,0,0,0,0,0,0,0,0,0,0,0,0,0,0,0,0,0,0,0,0,0,0,0,0,0,0,0,0,0,0,0,0,0,0,0,0,0,0,0,0,0,0,0,0,0,0,0,0,0,0,0,0,0,0,0,0,0,0,0,0,0,0,0,0,0,0,0,0,0,0,0,0,0,0,0,0,0,0,0,0,0,0,0,0,0,0,0,0,0,0,0,0,0,0,0,0,0,0,0,0,0,0,0,0,0,0,0,0,0,0,0,0,0,0,0,0,0,0,0,0,0,0,0,0,0,0,0,0,0,0,0,0,0,0,0,0,0,0,0,0,0,0,0,0,0,0,0,0,0,0,0,0,0,0,0,0,0,0,0,0,0,0,0,0,0,0,0,0,0,0,0,0,0,0,0,0,0,0,0,0,0,0,0,0,0,0,0,0,0,0,0,0,0,0,0,0,0,0,0,0,0,0,0,0,0,0,0,0,0,0,0,0,0,0,0,0,0,0,0,0,0,0,0,0,0,0,0,0,0,0,0,0,0,0,0,0,0,0,0,0,0,0,0,0,0,0,0,0,0,0,0,0,0,0,0,0,0,0,0,0,0,0,0,0,0,0,0,0,0,0,0,0,0,0,0,0,0,0,0,0,0,0,0,0,0,0,0,0,0,0,0,0,0,0,0,0,0,0,0,0,0,0,0,0,0,0,0,0,0,0,0,0,0,0,0,0,0,0,0,0,0,0,0,0,0,0,0,0,0,0,0,0,0,0,0,0,0,0,0,0,0,0,0,0,0,0,0,0,0,0,0,0,0,0,0,0,0,0,0,0],"sum_hessian":[6.7525543E2,4.8234998E2,1.9290546E2,1.5888363E1,4.664616E2,1.1778113E2,7.512433E1,3.9720907E0,1.1916272E1,3.7475815E2,9.170349E1,6.631665E1,5.146448E1,4.6974293E1,2.8150034E1,1.0534676E1,1.3815968E0,3.438449E2,3.0913229E1,6.096296E1,3.0740528E1,5.1291782E1,1.5024865E1,3.3331024E1,1.8133457E1,1.5715664E1,3.1258627E1,2.5041443E1,3.1085927E0,2.7631936E0,7.771482E0,2.9307123E2,5.077368E1,1.9687754E1,1.1225474E1,3.920281E1,2.1760149E1,1.9515055E1,1.1225474E1,4.9392086E1,1.8996956E0,3.453992E0,1.1570873E1,8.980379E0,2.4350643E1,6.7352843E0,1.1398173E1,8.46228E0,7.253383E0,2.3314445E1,7.9441814E0,2.0723953E0,1.0361977E0,1.5542964E0,1.2088972E0,2.0119504E2,9.187619E1,4.9737484E1,1.0361977E0,3.1085927E0,1.6579163E1,5.0082884E0,6.2171855E0,1.8478857E1,2.0723951E1,1.4334066E1,7.4260826E0,1.5715664E1,3.7993913E0,4.835589E0,6.3898854E0,2.590494E0,4.680159E1,2.2450948E0,1.2088972E0,4.662889E0,6.907984E0,3.9720907E0,5.0082884E0,1.1743573E1,1.2607071E1,8.289581E0,3.1085927E0,6.3898854E0,2.0723953E0,3.9720907E0,3.2812924E0,8.46228E0,1.4852165E1,5.180988E0,2.7631936E0,1.0361977E0,1.0361977E0,1.9998613E2,1.2088972E0,2.4696043E1,6.7180145E1,1.2088972E0,4.8528587E1,1.726996E0,1.3815968E0,1.5370264E1,1.2088972E0,2.7631936E0,2.2450948E0,2.0723953E0,4.1447906E0,1.0361977E0,1.744266E1,1.726996E0,1.8996956E1,9.153079E0,5.180988E0,1.2088972E0,6.2171855E0,2.590494E0,1.312517E1,2.4177945E0,1.3815968E0,3.2812924E0,1.5542964E0,1.0361977E0,5.353688E0,1.5542964E0,1.0361977E0,1.2088972E0,4.5592693E1,1.0361977E0,3.6266916E0,5.6990867E0,1.2088972E0,1.5542964E0,2.4177945E0,2.4177945E0,2.590494E0,3.453992E0,8.289581E0,5.526387E0,7.0806837E0,5.180988E0,3.1085927E0,1.8996956E0,1.2088972E0,1.0361977E0,1.0361977E0,2.9358933E0,1.0361977E0,5.8717866E0,2.590494E0,3.7993913E0,1.1052774E1,2.590494E0,2.590494E0,1.1933543E2,8.065071E1,5.180988E0,1.9515055E1,6.1999157E1,5.180988E0,4.5765392E1,2.7631936E0,1.4161367E1,1.2088972E0,1.726996E0,1.0361977E0,1.2088972E0,1.0361977E0,3.1085927E0,1.0361977E0,5.180988E0,1.2261672E1,5.6990867E0,3.453992E0,1.3815968E0,3.7993913E0,4.1447906E0,2.0723953E0,2.590494E0,1.0534676E1,2.2450948E0,1.0361977E0,4.4211098E1,1.3815968E0,1.0361977E0,2.590494E0,4.31749E0,1.3815968E0,1.0361977E0,1.3815968E0,1.3815968E0,1.2088972E0,3.453992E0,4.835589E0,2.9358933E0,2.590494E0,3.2812924E0,1.8996956E0,1.8996956E0,1.2088972E0,4.4901896E0,1.3815968E0,1.5542964E0,1.0361977E0,1.8996956E0,9.153079E0,1.2088972E0,1.3815968E0,1.5542964E0,1.0361977E0,1.0085657E2,1.8478857E1,3.436722E1,4.6283493E1,3.453992E0,1.726996E0,8.46228E0,1.1052774E1,4.731969E1,1.4679466E1,4.1447906E0,1.0361977E0,3.1604027E1,1.4161367E1,1.5542964E0,1.2088972E0,1.08800745E1,3.2812924E0,2.0723953E0,1.0361977E0,3.2812924E0,1.8996956E0,1.0534676E1,1.726996E0,1.8996956E0,1.5542964E0,1.2088972E0,2.590494E0,1.0361977E0,3.1085927E0,6.3898854E0,4.1447906E0,1.2088972E0,1.0361977E0,3.885741E1,5.353688E0,1.8996956E0,1.5542964E0,2.0723953E0,2.7631936E0,1.0361977E0,1.5542964E0,1.0361977E0,2.2450948E0,3.1085927E0,1.3815968E0,8.116881E0,1.0361977E0,4.835589E0,9.602098E1,2.7631936E0,1.5715664E1,2.2105549E1,1.2261672E1,1.2261672E1,3.402182E1,1.2088972E0,2.2450948E0,1.726996E0,6.7352843E0,9.498478E0,1.5542964E0,6.7352843E0,4.0584408E1,2.7631936E0,1.1916272E1,1.726996E0,2.4177945E0,1.1916272E1,1.9687754E1,7.5987825E0,6.562585E0,1.0361977E0,2.2450948E0,1.3815968E0,1.8996956E0,1.726996E0,4.662889E0,2.9358933E0,1.2088972E0,4.31749E0,1.0361977E0,1.0361977E0,1.0361977E0,1.2088972E0,1.0361977E0,2.0723953E0,1.0361977E0,5.180988E0,2.9358933E0,2.4177945E0,2.4177945E0,8.75587E1,8.46228E0,1.0361977E0,1.726996E0,2.0723953E0,1.3643269E1,1.0361976E1,1.1743573E1,7.9441814E0,4.31749E0,1.2088972E0,1.0361977E0,7.253383E0,2.2450948E0,5.526387E0,1.2088972E0,3.954821E1,1.0361977E0,1.5542964E0,1.2088972E0,1.08800745E1,1.0361977E0,9.325778E0,2.590494E0,1.5542964E1,4.1447906E0,1.0361977E0,6.562585E0,4.1447906E0,2.4177945E0,3.453992E0,1.2088972E0,1.0361977E0,1.0361977E0,3.2812924E0,1.8996956E0,1.0361977E0,1.3815968E0,1.726996E0,6.7352843E0,1.0361977E0,1.0361977E0,7.9441814E0,2.4177945E0,7.9441814E0,3.7993913E0,2.0723953E0,2.2450948E0,2.2450948E0,5.0082884E0,1.0361977E0,4.4901896E0,6.562585E0,3.2985622E1,8.980379E0,1.8996956E0,7.9441814E0,1.3815968E0,1.3815968E0,1.2088972E0,1.1916272E1,3.6266916E0,1.3815968E0,2.7631936E0,5.526387E0,1.0361977E0,1.726996E0,2.4177945E0,1.0361977E0,2.2450948E0],"tree_param":{"num_deleted":"0","num_feature":"39","num_nodes":"371","size_leaf_vector":"1"}},{"base_weights":[-1.8591915E-1,6.6916364E-1,-5.5107015E-1,-3.3580966E-2,1.6566938E0,9.492474E-1,-6.09024E-1,5.7801336E-1,-6.0891825E-1,2.1898782E0,1.2545393E0,-9.924486E-2,1.5391276E0,-7.2858995E-1,-1.3211334E-1,2.2854974E-2,1.6451473E0,-7.072736E-1,1.7658533E-1,3.039435E-1,1.8318312E0,8.795052E-1,2.4198532E0,1.6917634E0,8.840887E-3,-7.6918644E-1,-2.7779156E-1,-5.023773E-1,5.586568E-1,8.284652E-1,-7.64719E-1,5.154436E-1,2.0190957E0,-9.725648E-1,1.9372956E-1,1.4655021E0,2.8513527E-1,9.872113E-1,-4.0544766E-1,2.6149871E0,2.793773E-2,1.920514E-1,3.726766E-2,-8.2669336E-1,-4.340294E-1,-7.495404E-1,5.0015223E-1,-6.9520074E-1,7.470335E-1,1.0750633E0,-4.1488907E-1,1.0771734E0,-3.043951E-1,-1.0240856E0,-2.3753992E-1,-5.833217E-1,2.3717205E-1,2.17876E0,4.084191E-2,-1.1093823E0,3.8316435E-1,1.434341E0,-7.864568E-1,2.0208428E0,5.1637226E-1,1.2309656E0,4.8150074E-1,-7.939231E-2,2.9060319E-2,2.9176152E0,9.9594724E-1,-5.8815724E-1,-8.968532E-1,-8.542746E-1,1.6257556E-1,2.3275411E-3,-8.887389E-1,-8.644151E-2,1.4201734E0,-8.97056E-1,-3.2258478E-1,1.9758564E0,-4.3957725E-1,-2.3586492E-1,1.479942E0,3.2037807E-1,-9.516221E-1,1.3880724E0,4.03779E-1,2.292656E-2,-7.734741E-2,-1.1574882E-1,-2.3290062E-1,-9.179919E-2,2.7486503E-1,3.3032093E-2,-9.282645E-2,1.2395378E0,2.6104626E-1,1.8972134E-2,-1.1529125E0,1.213812E0,-7.915639E-2,2.0378399E-1,2.6005116E-1,2.9542575E-2,-1.0865467E-1,2.4211383E-1,7.040523E-1,1.094186E0,-6.7997134E-1,5.6438375E-1,1.5096209E0,1.0229049E0,-2.936244E-1,3.2397196E-1,3.3042308E-2,1.208439E-1,2.9664665E-2,1.0962643E-2,-7.705835E-1,-6.88486E-1,-9.908977E-1,-4.4023115E-3,-1.0483549E0,-3.998413E-1,1.293828E0,-7.8616194E-2,8.5277334E-2,-9.8573583E-1,1.8972134E-2,9.349861E-1,-7.2060513E-1,2.0820594E-1,3.1543022E-5,-1.0057826E0,1.1972078E-1,-1.1300989E-1,3.1104293E-1,5.225994E-2,2.467548E-1,-9.323357E-2,6.130023E-2,7.1215755E-1,-9.5462866E-2,-3.5269728E-1,1.837231E0,-6.8633534E-2,7.249725E-1,-1.05530515E-1,-2.2932613E-2,3.4088217E-2,2.0931947E0,1.3840285E-1,-1.0685706E-1,3.4497496E-2,-6.694757E-2,-4.467975E-1,1.3431944E-1,2.301241E-1,3.4355462E-1,-1.1972581E0,-4.8805436E-1,1.6497081E-2,1.771581E-1,-3.1979904E-2,8.051097E-2,1.3162966E-1,-3.8839016E-2,-6.845368E-1,2.38093E-1,-1.8787412E-2,-8.0794305E-2,9.2694294E-1,-7.603335E-2,1.7635777E0,1.4847282E-1,1.4004213E0,9.069245E-3,7.661624E-2,-9.701128E-2,-3.3300695E-1,1.4245996E-1,-8.293006E-1,3.615382E-1,-2.1735997E-1,-9.434198E-1,-1.0414076E0,-6.641887E-1,7.743755E-1,-9.040447E-2,1.867271E-2,-1.12235226E-1,1.3051556E-1,-6.166194E-1,2.24176E0,-1.7965853E-1,-1.0841367E0,-3.642084E-1,2.0103495E-1,-7.0320174E-2,-1.0178484E-1,3.3938073E-2,-1.0803363E0,-2.3531659E-1,8.967715E-1,-9.7792715E-2,-1.5983231E-2,1.2162588E-1,-7.507278E-2,2.9657304E-2,2.5654495E0,1.0656452E0,1.5076028E-1,-4.1559417E-2,-6.416487E-1,1.1359638E-1,2.4819355E-1,1.5996812E-2,-5.069597E-1,7.373055E-2,1.9319108E-2,-8.067939E-2,1.3195795E-1,-8.191488E-2,-1.2225689E-1,-3.3852827E-2,2.6954835E-2,-8.514561E-2,-8.355309E-2,-1.5395254E-2,1.4790627E-1,1.827133E-1,2.312654E-2,1.8828791E-1,1.21486805E-1,-7.843759E-2,3.8804732E-2,1.6568325E-1,7.9122394E-2,-7.072975E-2,1.4799136E-1,-8.105173E-1,-4.0022826E-1,-9.567632E-1,-2.274364E-2,8.113037E-2,-6.2437886E-1,1.8462867E0,-1.0213675E0,6.2296238E-2,-9.4015115E-1,-1.2256507E-1,1.1832875E-1,-9.435109E-1,1.7717735E-1,-4.1229997E-2,-1.1299659E-1,3.282878E-1,2.792842E-1,7.412658E-2,7.931799E-2,-8.342653E-2,-1.14969194E-1,-2.3890918E-2,-7.5049E-2,2.4695782E-2,-6.748985E-1,-1.201025E-1,8.159235E-2,-8.499237E-2,-6.211102E-1,1.6008841E0,5.37946E-2,2.9767883E-1,2.0250614E0,1.9389237E-1,-7.7126294E-2,-1.6547382E-2,-8.659517E-2,2.5745416E-2,-5.1332373E-2,9.915409E-2,-3.9779484E-1,5.131039E-1,5.831304E-3,-1.04282856E-1,-6.3199097E-1,2.393009E-1,-1.1396664E-1,-4.163428E-1,-1.0202191E0,2.030141E-3,7.970829E-2,2.3581162E-1,2.9304082E-2,-1.0826167E0,-9.787405E-1,2.6358038E-1,-1.0698214E0,-2.704337E-3,-6.2903553E-1,1.2672591E-1,-1.0637069E-1,2.464206E-1,-7.5707935E-2,-1.4402479E-2,1.5429007E-2,2.2171429E-1,6.645938E-2,2.3519766E-1,9.3946236E-1,-8.329121E-2,-8.004045E-2,3.3080082E-2,1.0402746E0,-1.9766934E-1,1.255336E-1,-1.06564656E-1,1.0423014E-1,-7.4290894E-2,-8.884271E-1,1.4579429E-1,-1.1498933E-1,-1.6590266E-2,1.0725825E0,-1.0290855E-1,-4.2864296E-1,-1.1672914E-1,-9.9838257E-1,1.0518185E-2,1.0810834E-1,-6.913727E-2,-1.1718221E-1,-2.7603233E-1,7.994627E-2,-7.138721E-2,-1.3828467E-2,-7.69806E-2,1.3258894E-1,-7.441053E-2,1.2307802E-2,1.354316E-1,-1.4729108E-2,1.6836388E-1,-6.3606165E-2,3.3131067E-2,-7.725068E-2,8.576625E-2,-1.4275814E-2,-1.00880794E-1,1.3766266E-1,-5.3670622E-2,-7.8451574E-2,2.1429043E-1,4.695089E-2,-7.939231E-2,-1.1464443E-1,-7.710968E-2,-7.068654E-2,3.520994E-2],"categories":[],"categories_nodes":[],"categories_segments":[],"categories_sizes":[],"default_left":[0,0,0,0,0,0,0,0,0,0,0,0,0,0,0,0,0,0,0,0,0,0,0,0,0,0,0,0,0,0,0,0,0,0,0,0,0,0,0,0,0,0,0,0,0,0,0,0,0,0,0,0,0,0,0,0,0,0,0,0,0,0,0,0,0,0,0,0,0,0,0,0,0,0,0,0,0,0,0,0,0,0,0,0,0,0,0,0,0,0,0,0,0,0,0,0,0,0,0,0,0,0,0,0,0,0,0,0,0,0,0,0,0,0,0,0,0,0,0,0,0,0,0,0,0,0,0,0,0,0,0,0,0,0,0,0,0,0,0,0,0,0,0,0,0,0,0,0,0,0,0,0,0,0,0,0,0,0,0,0,0,0,0,0,0,0,0,0,0,0,0,0,0,0,0,0,0,0,0,0,0,0,0,0,0,0,0,0,0,0,0,0,0,0,0,0,0,0,0,0,0,0,0,0,0,0,0,0,0,0,0,0,0,0,0,0,0,0,0,0,0,0,0,0,0,0,0,0,0,0,0,0,0,0,0,0,0,0,0,0,0,0,0,0,0,0,0,0,0,0,0,0,0,0,0,0,0,0,0,0,0,0,0,0,0,0,0,0,0,0,0,0,0,0,0,0,0,0,0,0,0,0,0,0,0,0,0,0,0,0,0,0,0,0,0,0,0,0,0,0,0,0,0,0,0,0,0,0,0,0,0,0,0,0,0,0,0,0,0,0,0,0,0,0,0,0,0,0,0,0,0,0,0,0,0,0,0,0,0,0,0,0,0,0,0,0,0,0,0,0,0,0,0,0,0,0,0,0,0,0,0],"id":1,"left_children":[1,3,5,7,9,11,13,15,17,19,21,-1,23,25,27,29,31,33,-1,-1,35,37,39,41,-1,43,45,47,49,51,53,55,57,59,61,63,-1,65,67,69,-1,-1,-1,71,73,75,77,79,81,83,85,87,89,91,93,95,-1,97,-1,99,101,103,105,107,109,111,113,-1,-1,115,117,119,121,123,125,127,129,131,133,135,137,139,141,143,145,147,149,151,153,-1,-1,-1,155,-1,157,-1,-1,159,-1,-1,161,163,-1,-1,165,-1,-1,-1,167,169,171,173,175,177,179,-1,-1,-1,-1,181,183,185,187,189,191,193,195,-1,-1,197,-1,199,201,-1,-1,203,-1,-1,205,-1,-1,-1,-1,207,-1,209,211,-1,213,-1,-1,215,217,-1,219,-1,-1,221,-1,-1,223,225,227,-1,-1,-1,-1,-1,-1,229,-1,-1,-1,231,-1,233,235,237,239,-1,-1,241,-1,243,245,247,249,251,253,255,-1,-1,-1,-1,257,259,261,263,265,-1,-1,-1,-1,267,269,271,-1,-1,-1,-1,-1,273,275,-1,-1,277,-1,-1,-1,279,-1,-1,-1,-1,-1,-1,-1,-1,-1,-1,-1,-1,281,-1,-1,-1,-1,-1,-1,-1,-1,283,285,287,289,-1,-1,291,293,295,-1,297,-1,-1,299,-1,-1,-1,301,-1,-1,-1,-1,-1,-1,-1,-1,303,-1,-1,-1,305,307,-1,-1,309,311,-1,-1,-1,-1,-1,-1,313,315,-1,-1,317,319,-1,321,323,325,-1,-1,-1,327,329,331,333,335,337,-1,-1,339,-1,-1,-1,-1,-1,-1,341,-1,-1,-1,343,345,347,-1,-1,-1,349,351,-1,-1,353,-1,355,-1,357,-1,-1,-1,-1,359,-1,-1,-1,-1,-1,-1,-1,-1,-1,-1,-1,-1,-1,-1,-1,-1,-1,-1,-1,-1,-1,-1,-1,-1,-1,-1],"loss_changes":[2.0815193E2,1.3856871E2,4.1172928E1,4.172878E1,1.5050156E1,2.186308E1,2.5570923E1,3.4034203E1,1.5515045E1,4.8796387E0,1.957296E1,0E0,2.9526138E0,6.3686676E0,2.3670784E1,2.5279953E1,7.2675667E0,1.4377855E1,0E0,0E0,5.785576E0,5.8167095E0,4.080658E0,3.0925026E0,0E0,5.9898834E0,1.1854373E1,1.4989745E1,1.6728258E1,5.8735237E0,2.513609E0,1.4098062E1,2.8218803E0,8.962345E0,1.8562166E1,1.0386223E1,0E0,3.8944511E0,1.240834E0,2.2079544E0,0E0,0E0,0E0,4.1593018E0,1.2761714E1,2.0818644E0,6.8189E0,3.6632729E0,1.3280878E1,1.1728767E1,5.019474E0,2.8645706E0,1.2594861E0,1.124876E0,3.024458E0,1.7936873E0,0E0,1.9950027E0,0E0,2.5974503E0,5.803011E0,4.205455E0,3.1309237E0,5.32539E0,7.2056627E0,3.5910034E0,5.957962E0,0E0,0E0,5.825485E0,1.1136508E-1,7.282507E0,3.5209656E0,4.8940353E0,1.4290095E1,3.4209025E0,1.9413233E0,6.19222E0,4.5932264E0,8.837799E0,1.0598556E1,1.8286667E0,3.241953E0,4.714955E0,1.1463921E1,2.855527E0,2.940092E-1,1.0222637E1,3.4403281E0,0E0,0E0,0E0,1.0277078E0,0E0,4.690105E0,0E0,0E0,4.885208E0,0E0,0E0,6.198158E-1,1.6392264E0,0E0,0E0,1.3366588E0,0E0,0E0,0E0,3.5338743E0,1.6933624E1,7.8763604E-2,4.858615E0,5.3626633E0,3.1106377E0,5.275049E0,0E0,0E0,0E0,0E0,8.507643E0,3.692255E0,8.200008E0,1.7095795E0,5.271994E0,2.4188519E0,6.431219E0,1.0773028E1,0E0,0E0,5.560427E-1,0E0,7.92924E0,2.179433E0,0E0,0E0,1.6076546E0,0E0,0E0,9.94123E0,0E0,0E0,0E0,0E0,1.5686543E0,0E0,1.1359179E0,5.123749E0,0E0,4.746784E0,0E0,0E0,4.234964E0,4.9187603E0,0E0,2.148021E0,0E0,0E0,1.0582166E0,0E0,0E0,6.0870113E0,4.0335464E-1,1.3973713E0,0E0,0E0,0E0,0E0,0E0,0E0,1.5845084E-1,0E0,0E0,0E0,2.7050467E0,0E0,2.0545235E0,4.5842605E0,8.98942E-1,2.3642232E0,0E0,0E0,3.3580508E0,0E0,2.2871094E0,1.0355704E0,2.2882843E1,6.1439667E0,1.1660461E0,1.2595863E1,5.5078716E0,0E0,0E0,0E0,0E0,7.2514954E0,1.7269993E0,3.1022527E0,4.4104385E-1,1.0425563E0,0E0,0E0,0E0,0E0,6.2192535E-1,3.3671892E0,1.0374187E1,0E0,0E0,0E0,0E0,0E0,3.806141E0,6.716999E0,0E0,0E0,9.196353E-2,0E0,0E0,0E0,1.3635566E0,0E0,0E0,0E0,0E0,0E0,0E0,0E0,0E0,0E0,0E0,0E0,0E0,2.8874588E0,0E0,0E0,0E0,0E0,0E0,0E0,0E0,0E0,1.7722039E0,1.519937E0,2.063333E0,3.1748657E0,0E0,0E0,5.5454617E0,5.448408E-1,3.8072052E0,0E0,4.182556E0,0E0,0E0,2.359518E0,0E0,0E0,0E0,5.98229E0,0E0,0E0,0E0,0E0,0E0,0E0,0E0,0E0,3.4854512E0,0E0,0E0,0E0,1.1810434E-1,5.2517815E0,0E0,0E0,1.8964577E-1,5.0386934E0,0E0,0E0,0E0,0E0,0E0,0E0,1.3552415E0,2.135942E0,0E0,0E0,3.3345997E0,4.052916E0,0E0,3.0251539E0,1.327096E0,1.1761445E1,0E0,0E0,0E0,1.8050728E0,1.8524399E0,3.4112775E0,1.0954342E0,2.4850295E0,1.3703346E-1,0E0,0E0,4.710068E0,0E0,0E0,0E0,0E0,0E0,0E0,1.0833306E0,0E0,0E0,0E0,2.6298864E0,9.1434777E-1,3.582972E0,0E0,0E0,0E0,4.0100765E-1,5.644438E0,0E0,0E0,1.2069832E1,0E0,2.4569888E0,0E0,1.8320694E0,0E0,0E0,0E0,0E0,1.1429024E0,0E0,0E0,0E0,0E0,0E0,0E0,0E0,0E0,0E0,0E0,0E0,0E0,0E0,0E0,0E0,0E0,0E0,0E0,0E0,0E0,0E0,0E0,0E0,0E0,0E0,0E0],"parents":[2147483647,0,0,1,1,2,2,3,3,4,4,5,5,6,6,7,7,8,8,9,9,10,10,12,12,13,13,14,14,15,15,16,16,17,17,20,20,21,21,22,22,23,23,25,25,26,26,27,27,28,28,29,29,30,30,31,31,32,32,33,33,34,34,35,35,37,37,38,38,39,39,43,43,44,44,45,45,46,46,47,47,48,48,49,49,50,50,51,51,52,52,53,53,54,54,55,55,57,57,59,59,60,60,61,61,62,62,63,63,64,64,65,65,66,66,69,69,70,70,71,71,72,72,73,73,74,74,75,75,76,76,77,77,78,78,79,79,80,80,81,81,82,82,83,83,84,84,85,85,86,86,87,87,88,88,92,92,94,94,97,97,100,100,101,101,104,104,108,108,109,109,110,110,111,111,112,112,113,113,114,114,119,119,120,120,121,121,122,122,123,123,124,124,125,125,126,126,129,129,131,131,132,132,135,135,138,138,143,143,145,145,146,146,148,148,151,151,152,152,154,154,157,157,160,160,161,161,162,162,169,169,173,173,175,175,176,176,177,177,178,178,181,181,183,183,184,184,185,185,186,186,187,187,188,188,189,189,194,194,195,195,196,196,197,197,198,198,203,203,204,204,205,205,211,211,212,212,215,215,219,219,232,232,241,241,242,242,243,243,244,244,247,247,248,248,249,249,251,251,254,254,258,258,267,267,271,271,272,272,275,275,276,276,283,283,284,284,287,287,288,288,290,290,291,291,292,292,296,296,297,297,298,298,299,299,300,300,301,301,304,304,311,311,315,315,316,316,317,317,321,321,322,322,325,325,327,327,329,329,334,334],"right_children":[2,4,6,8,10,12,14,16,18,20,22,-1,24,26,28,30,32,34,-1,-1,36,38,40,42,-1,44,46,48,50,52,54,56,58,60,62,64,-1,66,68,70,-1,-1,-1,72,74,76,78,80,82,84,86,88,90,92,94,96,-1,98,-1,100,102,104,106,108,110,112,114,-1,-1,116,118,120,122,124,126,128,130,132,134,136,138,140,142,144,146,148,150,152,154,-1,-1,-1,156,-1,158,-1,-1,160,-1,-1,162,164,-1,-1,166,-1,-1,-1,168,170,172,174,176,178,180,-1,-1,-1,-1,182,184,186,188,190,192,194,196,-1,-1,198,-1,200,202,-1,-1,204,-1,-1,206,-1,-1,-1,-1,208,-1,210,212,-1,214,-1,-1,216,218,-1,220,-1,-1,222,-1,-1,224,226,228,-1,-1,-1,-1,-1,-1,230,-1,-1,-1,232,-1,234,236,238,240,-1,-1,242,-1,244,246,248,250,252,254,256,-1,-1,-1,-1,258,260,262,264,266,-1,-1,-1,-1,268,270,272,-1,-1,-1,-1,-1,274,276,-1,-1,278,-1,-1,-1,280,-1,-1,-1,-1,-1,-1,-1,-1,-1,-1,-1,-1,282,-1,-1,-1,-1,-1,-1,-1,-1,284,286,288,290,-1,-1,292,294,296,-1,298,-1,-1,300,-1,-1,-1,302,-1,-1,-1,-1,-1,-1,-1,-1,304,-1,-1,-1,306,308,-1,-1,310,312,-1,-1,-1,-1,-1,-1,314,316,-1,-1,318,320,-1,322,324,326,-1,-1,-1,328,330,332,334,336,338,-1,-1,340,-1,-1,-1,-1,-1,-1,342,-1,-1,-1,344,346,348,-1,-1,-1,350,352,-1,-1,354,-1,356,-1,358,-1,-1,-1,-1,360,-1,-1,-1,-1,-1,-1,-1,-1,-1,-1,-1,-1,-1,-1,-1,-1,-1,-1,-1,-1,-1,-1,-1,-1,-1,-1],"split_conditions":[1E0,1E0,2.3E1,1E0,3.1E1,3E0,1E0,1.8E1,3.5E1,1E0,2E1,-9.924486E-2,2.1397E4,1E0,1E0,1E0,3E0,5E0,1.7658533E-1,3.039435E-1,4E0,1.7E1,4.9E1,2E1,8.840887E-3,1E0,1E0,2.9E1,1E0,2.8348E4,4E0,6E0,3.4033E4,5.6E1,3E0,4E0,2.8513527E-1,4E0,3.9E1,1E0,2.793773E-2,1.920514E-1,3.726766E-2,1E0,1.5E1,2.0774E4,5E0,1E0,3.2E1,9E0,3E0,1E0,1.1E1,1E0,1E0,2.7E1,2.3717205E-1,2.8E1,4.084191E-2,2.8E1,1.5E1,1E0,3.6E1,2.1118E4,2E1,3E0,1E0,-7.939231E-2,2.9060319E-2,1E0,3.7E1,2.0087E4,1E0,8E0,4.5E1,1E0,3.4272E4,3E0,3.8E1,1E0,1.3E1,1E0,1E0,3.1E1,2.5E1,3.3E1,1.7E1,1E1,2E0,2.292656E-2,-7.734741E-2,-1.1574882E-1,1.2E1,-9.179919E-2,1.2E1,3.3032093E-2,-9.282645E-2,2.1E1,2.6104626E-1,1.8972134E-2,3E1,9E0,-7.915639E-2,2.0378399E-1,2.6623E4,2.9542575E-2,-1.0865467E-1,2.4211383E-1,2.7E1,1.3E1,1E0,1.949E4,4.5E1,4E0,1E0,3.2397196E-1,3.3042308E-2,1.208439E-1,2.9664665E-2,1.9771E4,5.3E1,1E0,2.7E1,4E0,2.2336E4,2.3186E4,5E0,-7.8616194E-2,8.5277334E-2,6E0,1.8972134E-2,1.7E1,3.9E1,2.0820594E-1,3.1543022E-5,6E0,1.1972078E-1,-1.1300989E-1,2.1E1,5.225994E-2,2.467548E-1,-9.323357E-2,6.130023E-2,2.8E1,-9.5462866E-2,4E0,1.4E1,-6.8633534E-2,3.7E1,-1.05530515E-1,-2.2932613E-2,4.1E1,5E0,1.3840285E-1,4E0,3.4497496E-2,-6.694757E-2,1E0,1.3431944E-1,2.301241E-1,3.7E1,5.5E1,3.7E1,1.6497081E-2,1.771581E-1,-3.1979904E-2,8.051097E-2,1.3162966E-1,-3.8839016E-2,1E1,2.38093E-1,-1.8787412E-2,-8.0794305E-2,1E0,-7.603335E-2,3.3E1,1E0,3E0,3.4E1,7.661624E-2,-9.701128E-2,1E0,1.4245996E-1,3.3E1,2E0,5E0,5.3E1,4.1E1,2.8E1,3.9E1,-9.040447E-2,1.867271E-2,-1.12235226E-1,1.3051556E-1,4E0,2.3E1,1.8E1,5.3E1,1.6E1,2.0103495E-1,-7.0320174E-2,-1.0178484E-1,3.3938073E-2,9E0,2.1522E4,1E0,-9.7792715E-2,-1.5983231E-2,1.2162588E-1,-7.507278E-2,2.9657304E-2,3E0,1E0,1.5076028E-1,-4.1559417E-2,1E0,1.1359638E-1,2.4819355E-1,1.5996812E-2,4E0,7.373055E-2,1.9319108E-2,-8.067939E-2,1.3195795E-1,-8.191488E-2,-1.2225689E-1,-3.3852827E-2,2.6954835E-2,-8.514561E-2,-8.355309E-2,-1.5395254E-2,1.4790627E-1,2E0,2.312654E-2,1.8828791E-1,1.21486805E-1,-7.843759E-2,3.8804732E-2,1.6568325E-1,7.9122394E-2,-7.072975E-2,1.1E1,2.9E1,1E0,5E0,-2.274364E-2,8.113037E-2,1E0,3.6E1,2.6E1,6.2296238E-2,1E0,-1.2256507E-1,1.1832875E-1,5.2E1,1.7717735E-1,-4.1229997E-2,-1.1299659E-1,1E0,2.792842E-1,7.412658E-2,7.931799E-2,-8.342653E-2,-1.14969194E-1,-2.3890918E-2,-7.5049E-2,2.4695782E-2,4E0,-1.201025E-1,8.159235E-2,-8.499237E-2,1E0,3E0,5.37946E-2,2.9767883E-1,1.7E1,1E0,-7.7126294E-2,-1.6547382E-2,-8.659517E-2,2.5745416E-2,-5.1332373E-2,9.915409E-2,1E0,3E0,5.831304E-3,-1.04282856E-1,1E0,5E0,-1.1396664E-1,2.3449E4,2.5E1,1.4E1,7.970829E-2,2.3581162E-1,2.9304082E-2,2E0,8E0,3E0,3.6E1,4E0,5E0,1.2672591E-1,-1.0637069E-1,1E0,-7.5707935E-2,-1.4402479E-2,1.5429007E-2,2.2171429E-1,6.645938E-2,2.3519766E-1,3.1E1,-8.329121E-2,-8.004045E-2,3.3080082E-2,1E0,2E1,1E0,-1.06564656E-1,1.0423014E-1,-7.4290894E-2,9E0,2.3936E4,-1.1498933E-1,-1.6590266E-2,3E0,-1.0290855E-1,1E0,-1.1672914E-1,4E0,1.0518185E-2,1.0810834E-1,-6.913727E-2,-1.1718221E-1,4E0,7.994627E-2,-7.138721E-2,-1.3828467E-2,-7.69806E-2,1.3258894E-1,-7.441053E-2,1.2307802E-2,1.354316E-1,-1.4729108E-2,1.6836388E-1,-6.3606165E-2,3.3131067E-2,-7.725068E-2,8.576625E-2,-1.4275814E-2,-1.00880794E-1,1.3766266E-1,-5.3670622E-2,-7.8451574E-2,2.1429043E-1,4.695089E-2,-7.939231E-2,-1.1464443E-1,-7.710968E-2,-7.068654E-2,3.520994E-2],"split_indices":[22,27,31,2,31,36,18,32,32,2,32,0,38,6,27,20,36,36,0,0,35,32,31,32,0,14,27,32,9,38,35,35,38,31,35,36,0,36,31,18,0,0,0,16,32,38,35,24,31,32,35,9,32,14,12,32,0,32,0,31,32,20,31,38,32,33,20,0,0,6,31,38,2,32,31,24,38,36,31,3,32,0,24,31,31,31,32,32,35,0,0,0,32,0,32,0,0,32,0,0,32,32,0,0,38,0,0,0,31,32,37,38,31,35,2,0,0,0,0,38,31,12,32,36,38,38,35,0,0,35,0,32,31,0,0,35,0,0,32,0,0,0,0,31,0,36,32,0,31,0,0,31,36,0,33,0,0,24,0,0,31,31,31,0,0,0,0,0,0,32,0,0,0,37,0,31,9,33,31,0,0,20,0,31,37,36,31,31,31,31,0,0,0,0,35,32,32,31,32,0,0,0,0,32,38,12,0,0,0,0,0,36,2,0,0,8,0,0,0,35,0,0,0,0,0,0,0,0,0,0,0,0,36,0,0,0,0,0,0,0,0,32,31,0,35,0,0,9,31,31,0,15,0,0,31,0,0,0,0,0,0,0,0,0,0,0,0,36,0,0,0,20,35,0,0,32,20,0,0,0,0,0,0,37,33,0,0,8,36,0,38,32,32,0,0,0,35,35,35,32,36,35,0,0,9,0,0,0,0,0,0,31,0,0,0,9,32,24,0,0,0,32,38,0,0,36,0,8,0,36,0,0,0,0,36,0,0,0,0,0,0,0,0,0,0,0,0,0,0,0,0,0,0,0,0,0,0,0,0,0,0],"split_type":[0,0,0,0,0,0,0,0,0,0,0,0,0,0,0,0,0,0,0,0,0,0,0,0,0,0,0,0,0,0,0,0,0,0,0,0,0,0,0,0,0,0,0,0,0,0,0,0,0,0,0,0,0,0,0,0,0,0,0,0,0,0,0,0,0,0,0,0,0,0,0,0,0,0,0,0,0,0,0,0,0,0,0,0,0,0,0,0,0,0,0,0,0,0,0,0,0,0,0,0,0,0,0,0,0,0,0,0,0,0,0,0,0,0,0,0,0,0,0,0,0,0,0,0,0,0,0,0,0,0,0,0,0,0,0,0,0,0,0,0,0,0,0,0,0,0,0,0,0,0,0,0,0,0,0,0,0,0,0,0,0,0,0,0,0,0,0,0,0,0,0,0,0,0,0,0,0,0,0,0,0,0,0,0,0,0,0,0,0,0,0,0,0,0,0,0,0,0,0,0,0,0,0,0,0,0,0,0,0,0,0,0,0,0,0,0,0,0,0,0,0,0,0,0,0,0,0,0,0,0,0,0,0,0,0,0,0,0,0,0,0,0,0,0,0,0,0,0,0,0,0,0,0,0,0,0,0,0,0,0,0,0,0,0,0,0,0,0,0,0,0,0,0,0,0,0,0,0,0,0,0,0,0,0,0,0,0,0,0,0,0,0,0,0,0,0,0,0,0,0,0,0,0,0,0,0,0,0,0,0,0,0,0,0,0,0,0,0,0,0,0,0,0,0,0,0,0,0,0,0,0,0,0,0,0,0,0,0,0,0,0,0,0,0,0,0,0,0,0,0,0,0,0,0,0,0,0,0,0,0,0],"sum_hessian":[6.6447186E2,1.985919E2,4.6587997E2,1.1659019E2,8.2001724E1,1.6754616E1,4.4912537E2,5.6512108E1,6.0078083E1,3.3345814E1,4.8655907E1,3.7449586E0,1.3009657E1,3.5867456E2,9.045081E1,3.7845196E1,1.8666908E1,5.8363045E1,1.7150366E0,7.666406E0,2.5679409E1,3.8136986E1,1.0518924E1,1.162083E1,1.3888279E0,3.2839478E2,3.027977E1,5.906419E1,3.1386625E1,1.8682713E1,1.9162485E1,5.2338243E0,1.34330845E1,4.5026134E1,1.3336909E1,2.0684578E1,4.9948316E0,3.5401325E1,2.73566E0,9.436932E0,1.0819919E0,9.51486E0,2.1059687E0,2.7904852E2,4.9346252E1,1.8872131E1,1.14076395E1,5.1551712E1,7.5124784E0,2.0440119E1,1.09465065E1,1.5359781E1,3.3229308E0,1.2211821E1,6.9506645E0,3.7185197E0,1.5153047E0,1.1900684E1,1.5323997E0,4.106377E1,3.962364E0,5.681968E0,7.6549416E0,1.2336991E1,8.347586E0,2.2919777E1,1.2481548E1,1.6655072E0,1.070153E0,7.2750306E0,2.1619008E0,6.555422E1,2.1349431E2,2.8698969E1,2.0647285E1,3.1017258E0,1.5770405E1,7.5194063E0,3.8882334E0,3.2524784E1,1.902693E1,3.3638437E0,4.1486344E0,4.9217553E0,1.5518363E1,4.789077E0,6.1574297E0,9.782157E0,5.5776243E0,1.7936164E0,1.5293144E0,1.00536785E1,2.1581428E0,2.6457224E0,4.304942E0,1.0307589E0,2.6877606E0,4.9665713E0,6.9341135E0,1.2224663E0,3.9841305E1,2.301622E0,1.660742E0,3.2673888E0,2.4145794E0,1.6656148E0,5.9893265E0,8.817779E0,3.5192127E0,5.686496E0,2.66109E0,7.648615E0,1.5271161E1,7.1604805E0,5.321068E0,6.245281E0,1.0297495E0,1.0996804E0,1.0622203E0,1.5520871E1,5.003335E1,6.898043E1,1.4451387E2,5.525526E0,2.3173443E1,1.422279E1,6.424495E0,1.6487128E0,1.4530131E0,1.4547938E1,1.2224663E0,2.6985595E0,4.8208466E0,2.3338785E0,1.5543548E0,3.1413645E1,1.1111385E0,8.021083E0,1.1005847E1,1.3718944E0,1.9919494E0,2.9035795E0,1.245055E0,2.1263587E0,2.7953966E0,2.5339336E0,1.2984429E1,1.173304E0,3.6157732E0,4.981334E0,1.1760954E0,3.7088068E0,6.0733504E0,1.3245441E0,4.25308E0,1.0190653E0,1.1390777E0,2.9165654E0,1.3883771E0,1.5552578E0,3.4113135E0,3.6599377E1,3.2419276E0,1.2489111E0,1.0527108E0,1.3701969E0,1.0443825E0,2.123958E0,1.3952545E0,2.583382E0,3.1031141E0,1.0585759E0,1.6025141E0,6.240843E0,1.4077725E0,1.2620779E1,2.650382E0,4.939774E0,2.2207062E0,2.02155E0,3.299518E0,1.3098214E1,2.4226573E0,4.7820637E1,2.212718E0,2.487087E1,4.410956E1,1.2326871E2,2.1245167E1,3.036346E0,2.48918E0,1.2237937E0,2.1949648E1,1.0380049E0,1.3184785E1,3.5921643E0,2.832331E0,1.1916928E1,2.63101E0,1.4919878E0,1.2065717E0,3.796092E0,1.0247548E0,2.8275402E1,3.1382418E0,7.7763996E0,3.2294471E0,1.0291244E0,1.0972344E0,1.4740279E0,1.0599059E0,5.483874E0,7.5005555E0,1.953515E0,1.6622579E0,2.5578525E0,1.1509544E0,4.820246E0,1.253104E0,3.1564765E0,1.0966035E0,1.2167766E0,1.6997888E0,1.7811847E0,1.630129E0,3.5139942E1,1.4594339E0,1.1346747E0,2.107253E0,1.5636578E0,1.0197241E0,3.015998E0,3.224845E0,1.1238973E0,1.1496882E1,1.0956072E0,1.5547748E0,1.5062218E0,3.4335523E0,1.0116524E0,1.2090538E0,6.8690586E0,6.2291555E0,1.1900485E1,3.592015E1,1.172125E0,1.0405931E0,2.135617E1,3.5146992E0,4.235004E1,1.7595156E0,8.348807E1,3.9780643E1,2.3651896E0,1.8879978E1,1.3818487E0,1.6544971E0,8.416464E0,4.768321E0,1.9973297E0,1.5948346E0,1.0540999E0,1.7782309E0,1.0724896E1,1.1920321E0,1.4724187E0,1.1585914E0,7.998281E0,2.027712E1,1.0369915E0,2.1012502E0,2.501565E0,5.2748346E0,1.3141545E0,4.1697197E0,2.9409208E0,4.5596347E0,1.5234623E0,1.0343901E0,2.057419E0,1.0990574E0,1.9296403E0,1.2952045E0,2.7174227E0,4.1516356E0,1.4722003E0,4.756955E0,8.743621E0,3.1568642E0,2.6008743E1,9.9114065E0,1.2701293E1,8.654878E0,1.9908863E0,1.5238129E0,1.7170818E0,4.063296E1,8.1075836E1,2.4122257E0,1.6524328E1,2.3556497E0,2.5245297E0,2.2437913E0,5.515938E0,2.4823432E0,1.4900246E0,1.0115403E0,1.9493452E0,3.3254893E0,1.1573789E0,1.7835419E0,2.690851E0,1.8687838E0,1.6867793E0,1.0306435E0,2.1175194E0,2.0341163E0,3.4418323E0,5.301789E0,1.703223E0,1.4536412E0,5.071718E0,4.839689E0,1.072708E1,1.9742129E0,4.2265067E0,4.4283714E0,5.352883E0,3.528008E1,7.97103E1,1.3655378E0,1.2284828E0,1.1837428E0,1.4220744E1,2.3035839E0,1.0486556E0,1.3069941E0,1.0046126E0,1.5199171E0,1.0258296E0,1.4565136E0,1.3435591E0,1.3472918E0,1.0150086E0,1.1025108E0,1.0016054E0,1.032511E0,1.5209996E0,1.9208328E0,1.0088063E0,4.062912E0,1.3635703E0,3.4761183E0,1.6429238E0,2.5835826E0,1.4651148E0,3.8877678E0,4.5818504E1,3.3891796E1,1.2920358E0,1.0115479E0],"tree_param":{"num_deleted":"0","num_feature":"39","num_nodes":"361","size_leaf_vector":"1"}},{"base_weights":[-1.685658E-1,6.018877E-1,-5.1559395E-1,-2.47551E-2,1.4217831E0,8.250848E-1,-5.7151693E-1,-5.50615E-1,5.7728225E-1,1.5905844E0,5.095518E-1,-9.606926E-2,1.3118334E0,-6.886546E-1,-1.1718074E-1,1.5013935E-2,-9.219916E-1,8.17947E-2,1.5208263E0,2.0075881E0,1.165427E0,1.6317862E0,-2.0504507E-1,9.57773E-1,2.2194277E-1,-7.287432E-1,-2.5510383E-1,-4.6911559E-1,5.091758E-1,-4.1012567E-1,1.1039437E0,-9.861345E-1,1.8863393E-2,7.7209723E-1,-6.875179E-1,1.8295211E0,-1.7659511E-2,1.3940924E0,2.658895E-1,1.481737E0,5.9806126E-1,2.1570006E-1,-2.6236111E-2,1.6117126E-1,-9.2763186E-2,-7.262387E-2,1.1923908E0,-7.862854E-1,-3.9968994E-1,-7.136825E-1,4.619663E-1,-6.5862226E-1,6.853507E-1,9.622308E-1,-3.9148587E-1,-7.9739064E-1,1.3155419E0,-6.9001876E-2,1.5464777E0,-1.0330231E0,2.6238624E-2,1.1273694E0,-7.922344E-3,-9.6443576E-1,-1.7388323E-1,2.2025278E0,1.1574111E0,-6.947755E-2,5.2419312E-2,1.7036347E0,-8.87379E-2,2.282325E-1,1.155201E0,-5.76767E-1,1.2020392E0,-1.9166863E-1,1.1515757E-1,6.177531E-1,1.6540254E0,-5.5197936E-1,-8.5650086E-1,-8.13593E-1,1.6117243E-1,2.3311148E-3,-8.5218924E-1,-7.452316E-2,1.25141E0,-8.378988E-1,-2.571968E-1,1.7254044E0,-4.1315258E-1,-3.8430455E-1,1.2581201E0,2.8943992E-1,-9.175564E-1,-1.0145966E0,7.56898E-2,2.4641909E-2,1.6764063E-1,2.0997405E-1,3.445233E-1,-5.7009006E-1,-1.1529696E-1,1.4075694E0,-2.595387E-1,-8.390437E-2,4.6428597E-1,-1.1105379E-1,-2.2224054E-1,-8.8744596E-2,3.604982E-1,2.4712276E-1,6.456765E-2,3.4545544E-1,2.2402649E-1,2.0724108E0,1.0735946E0,1.5379338E-1,1.4452949E0,-7.97142E-1,1.2898634E-2,1.5506088E0,-1.9491961E-2,4.0368435E-1,-7.03459E-1,1.8459241E-1,-2.5468042E-1,-1.0103523E-2,2.3777084E-1,1.4713336E-2,-7.314751E-1,-6.491086E-1,-9.514827E-1,1.6554316E-4,-1.0099123E0,-3.6914864E-1,1.157358E0,-7.600135E-2,7.806977E-2,-9.5050675E-1,1.782112E-2,1.7302766E-1,-5.6216055E-1,1.7939757E-1,2.9622275E-5,-9.3211263E-1,4.7499623E-2,6.152335E-1,-7.779719E-1,4.837739E-2,2.1171127E-1,-9.0202324E-2,5.6817986E-2,-9.054217E-2,5.8265746E-2,-4.1399476E-1,1.5865849E0,-6.641149E-2,6.569902E-1,-1.02196075E-1,-2.1855703E-2,3.0462658E-2,-1.13876835E-1,-2.2054473E-2,7.4890405E-2,-8.421918E-1,6.817805E-2,1.948876E0,5.620843E-1,2.6061863E-2,-6.6320464E-2,1.15890406E-1,-1.326807E-1,3.3258334E-2,-6.523078E-2,-3.442877E-1,1.2106772E-1,1.2419601E-1,-4.3134663E-1,4.1571535E-2,2.268406E-1,1.7679468E-1,1.4923271E0,-7.5725126E-1,1.5675111E-1,2.0537841E-1,7.610282E-1,-9.13047E-2,-2.1217361E-2,2.691771E-2,1.6978477E-1,7.6444164E-2,-2.2139065E-2,-8.2787625E-2,-2.0048255E-2,7.0208564E-2,-9.4920844E-2,-3.093129E-1,1.25086E0,-7.903794E-1,3.3964863E-1,-1.9571236E-1,-9.03348E-1,-7.60994E-1,-1.0492674E0,-8.883824E-2,7.461525E-1,1.7541707E-2,-1.0861552E-1,-1.0709363E-1,2.1629569E-1,1.9410678E0,-1.6560194E-1,-1.0500406E0,-3.469841E-1,-8.940485E-1,5.750674E-2,-6.317619E-1,-1.165534E-1,1.2407577E0,-7.962283E-2,-1.0025572E-1,2.86133E-2,3.067421E-2,-7.983485E-2,1.903596E-1,6.753166E-1,1.3337874E-1,-3.9589692E-2,-1.02874674E-1,-1.3181726E-2,2.2256862E-1,4.929422E-2,1.7486498E-1,-3.107572E-1,-7.246422E-2,4.98673E-2,2.072398E-2,-7.191564E-2,2.9622892E-2,-8.320103E-2,1.3209581E-1,-8.863271E-2,3.4416173E-2,1.7990457E-1,-2.227862E-2,-8.6709E-2,-1.421629E-1,1.3832984E0,1.4109363E-1,-7.756857E-1,1.5518281E-1,2.8261265E-2,-4.3661016E-1,-9.4572884E-1,7.876314E-2,-2.3683785E-2,-5.911459E-1,1.6360133E0,-9.8299515E-1,5.703173E-2,-8.7356347E-1,-2.0635022E-1,-8.5842884E-1,-1.1389458E0,1.5047535E-1,-6.609496E-2,1.12612024E-1,-2.963338E-1,2.3731112E-1,6.783082E-2,7.4388705E-2,-8.074861E-2,-1.1172631E-1,-2.2767577E-2,-7.59807E-2,3.53274E-2,-1.0130916E-1,-1.52616175E-2,1.22532055E-1,-1.0340866E0,-3.522435E-2,1.9293651E-1,-2.3991156E-2,1.2731841E0,-8.4298365E-2,4.701614E-2,4.6904188E-2,-7.997383E-2,1.7494345E-1,4.8857402E-2,6.627259E-1,-6.4576936E-1,5.472295E-3,-1.01005554E-1,-5.748907E-1,7.795832E-2,-1.08765475E-1,-5.3929013E-1,-9.843924E-1,1.2394956E-4,1.9183421E-1,2.9480908E-2,2.7156422E-2,-1.0459875E0,-9.280731E-1,7.914423E-2,1.0480456E0,-7.873286E-1,-9.494348E-1,-6.68835E-2,-1.1541659E0,-2.7619764E-2,-9.340867E-2,5.559249E-1,-8.014762E-2,6.276713E-1,-1.1084898E-1,-2.68732E-2,2.5031207E-2,1.630258E-1,8.932972E-1,-1.485084E-2,-1.4117475E-2,-7.8474954E-2,-1.0423561E-1,-2.2330926E-1,-9.6729055E-2,-1.7092006E-1,-1.1174462E-1,-1.5594604E-2,9.433262E-1,-9.965099E-2,-4.0114063E-1,-1.1333884E-1,-1.0764904E0,-5.9554225E-1,8.063495E-2,-6.6082805E-2,1.2552175E-1,2.9493136E-2,-1.0258367E-1,2.6441714E-2,-1.11382544E-1,-5.794583E-1,1.0120322E-1,-8.3460085E-2,-1.1694258E-1,-4.7083974E-2,-2.2103507E-2,1.058201E-1,-1.9905377E-2,1.2982298E-1,-1.4223072E-2,1.2623559E-1,-4.2772558E-2,6.961616E-2,-6.0514178E-2,7.117022E-2,-7.584596E-2,1.8248288E-1,-7.606729E-2,4.3406278E-2,-1.1390062E-1,-5.7197124E-2,-1.00244604E-1,1.6943319E-2,-1.0099131E-1,-1.2681715E-2],"categories":[],"categories_nodes":[],"categories_segments":[],"categories_sizes":[],"default_left":[0,0,0,0,0,0,0,0,0,0,0,0,0,0,0,0,0,0,0,0,0,0,0,0,0,0,0,0,0,0,0,0,0,0,0,0,0,0,0,0,0,0,0,0,0,0,0,0,0,0,0,0,0,0,0,0,0,0,0,0,0,0,0,0,0,0,0,0,0,0,0,0,0,0,0,0,0,0,0,0,0,0,0,0,0,0,0,0,0,0,0,0,0,0,0,0,0,0,0,0,0,0,0,0,0,0,0,0,0,0,0,0,0,0,0,0,0,0,0,0,0,0,0,0,0,0,0,0,0,0,0,0,0,0,0,0,0,0,0,0,0,0,0,0,0,0,0,0,0,0,0,0,0,0,0,0,0,0,0,0,0,0,0,0,0,0,0,0,0,0,0,0,0,0,0,0,0,0,0,0,0,0,0,0,0,0,0,0,0,0,0,0,0,0,0,0,0,0,0,0,0,0,0,0,0,0,0,0,0,0,0,0,0,0,0,0,0,0,0,0,0,0,0,0,0,0,0,0,0,0,0,0,0,0,0,0,0,0,0,0,0,0,0,0,0,0,0,0,0,0,0,0,0,0,0,0,0,0,0,0,0,0,0,0,0,0,0,0,0,0,0,0,0,0,0,0,0,0,0,0,0,0,0,0,0,0,0,0,0,0,0,0,0,0,0,0,0,0,0,0,0,0,0,0,0,0,0,0,0,0,0,0,0,0,0,0,0,0,0,0,0,0,0,0,0,0,0,0,0,0,0,0,0,0,0,0,0,0,0,0,0,0,0,0,0,0,0,0,0,0,0,0,0,0,0,0,0,0,0,0,0,0,0,0,0,0,0,0,0],"id":2,"left_children":[1,3,5,7,9,11,13,15,17,19,21,-1,23,25,27,29,31,33,35,37,39,41,43,45,-1,47,49,51,53,55,57,59,-1,61,63,65,67,69,-1,71,73,-1,-1,75,-1,-1,77,79,81,83,85,87,89,91,93,95,97,-1,99,101,-1,103,105,107,109,111,113,-1,-1,115,-1,-1,117,119,121,123,-1,125,127,129,131,133,135,137,139,141,143,145,147,149,151,153,155,157,159,161,-1,-1,-1,-1,163,165,-1,167,169,-1,171,-1,173,-1,175,-1,-1,177,-1,179,181,183,185,187,-1,189,-1,191,193,-1,195,-1,-1,197,199,201,203,205,207,209,211,-1,-1,213,-1,-1,215,-1,-1,217,-1,219,221,-1,-1,-1,-1,-1,-1,223,225,-1,227,-1,-1,-1,-1,-1,-1,229,-1,231,233,-1,-1,-1,235,-1,-1,237,-1,-1,239,-1,-1,241,243,245,-1,-1,247,-1,-1,-1,-1,-1,-1,-1,-1,-1,-1,249,251,253,255,257,259,261,263,-1,265,-1,-1,-1,267,269,271,273,275,277,-1,279,-1,281,-1,-1,-1,-1,-1,-1,283,-1,-1,-1,-1,-1,-1,-1,285,-1,-1,-1,-1,-1,-1,-1,-1,-1,-1,-1,-1,287,289,291,293,-1,-1,295,297,-1,-1,299,301,303,-1,305,307,309,311,-1,-1,-1,313,-1,-1,-1,-1,-1,-1,-1,-1,-1,-1,315,317,-1,-1,-1,319,-1,-1,-1,-1,-1,-1,321,323,-1,-1,325,-1,-1,327,329,331,-1,-1,-1,333,335,337,339,341,343,345,347,-1,-1,349,-1,351,-1,-1,-1,-1,353,-1,-1,-1,-1,355,-1,357,-1,-1,359,-1,361,-1,363,365,-1,-1,-1,-1,-1,-1,-1,367,-1,-1,-1,-1,-1,-1,-1,-1,-1,-1,-1,-1,-1,-1,-1,-1,-1,-1,-1,-1,-1,-1,-1,-1],"loss_changes":[1.7469536E2,1.0433636E2,3.422663E1,3.70568E1,1.2734085E1,1.728614E1,2.295192E1,1.3133032E1,2.5398483E1,1.0736282E1,1.2529087E1,0E0,2.6657562E0,5.7906494E0,2.0059296E1,1.2367755E1,2.8729172E0,2.010149E1,8.932602E0,1.0618027E1,6.0956345E0,6.562168E0,2.84304E0,5.798952E0,0E0,5.635391E0,1.0406256E1,1.3159974E1,1.3771213E1,1.3906617E1,7.019456E0,2.3678856E0,0E0,5.522091E0,2.3864994E0,1.3662834E0,1.8766545E0,1.6033695E1,0E0,3.7163582E0,1.1764235E1,0E0,0E0,2.8790634E0,0E0,0E0,1.9856701E0,3.9103546E0,1.1460641E1,1.8945436E0,5.412751E0,3.4121532E0,1.0630737E1,9.300247E0,4.4555306E0,6.2829533E0,1.0929713E0,0E0,3.4811478E0,1.2708321E0,0E0,5.679903E0,3.2226295E0,9.9451065E-1,3.183682E0,2.142788E0,5.98003E0,0E0,0E0,2.0615807E0,0E0,0E0,5.3803616E0,1.0318627E0,5.477865E0,2.2542045E0,0E0,7.5919156E0,7.467926E0,6.545473E0,3.3846893E0,4.512703E0,1.1816165E1,3.0205476E0,1.7895823E0,8.384642E0,3.4872808E0,4.6981373E0,8.204689E0,1.2384453E0,2.9249544E0,2.9224062E0,1.0749693E1,2.4895089E0,2.7570868E-1,2.7647696E0,0E0,0E0,0E0,0E0,8.939207E-1,3.6820412E0,0E0,4.182808E0,8.327552E-1,0E0,2.329537E0,0E0,9.645153E-1,0E0,3.4160295E0,0E0,0E0,4.4162784E0,0E0,2.486683E0,3.073207E0,8.207752E0,4.6138363E0,1.2434745E-1,0E0,1.1690083E0,0E0,9.8655903E-1,7.443762E-2,0E0,3.8326712E0,0E0,0E0,6.9694095E0,3.34799E0,7.5427837E0,1.7572708E0,4.964609E0,2.2471085E0,6.3232574E0,8.337253E0,0E0,0E0,5.221672E-1,0E0,0E0,3.301532E0,0E0,0E0,1.537756E0,0E0,7.0930395E0,2.9372249E0,0E0,0E0,0E0,0E0,0E0,0E0,1.3003745E0,3.211258E0,0E0,3.8993754E0,0E0,0E0,0E0,0E0,0E0,0E0,9.1690254E-1,0E0,1.5732441E0,6.6611514E0,0E0,0E0,0E0,1.7513499E0,0E0,0E0,8.758271E-1,0E0,0E0,1.333128E0,0E0,0E0,5.991269E0,1.4668884E0,4.100609E-2,0E0,0E0,5.01402E0,0E0,0E0,0E0,0E0,0E0,0E0,0E0,0E0,0E0,0E0,3.0129747E0,6.1382294E-1,2.1462116E0,1.024237E0,1.931947E1,5.564438E0,2.9529057E0,5.2880096E-1,0E0,5.3405266E0,0E0,0E0,0E0,4.491827E0,1.0819511E0,2.817603E0,4.1867542E-1,1.3041576E0,3.8451052E-1,0E0,5.0940537E0,0E0,6.364317E0,0E0,0E0,0E0,0E0,0E0,0E0,3.3518145E0,0E0,0E0,0E0,0E0,0E0,0E0,0E0,2.16379E0,0E0,0E0,0E0,0E0,0E0,0E0,0E0,0E0,0E0,0E0,0E0,0E0,2.1448424E0,8.382988E-1,3.6614118E0,1.4068918E0,0E0,0E0,3.150126E0,1.2304325E0,0E0,0E0,5.016186E0,1.2384157E0,3.5093994E0,0E0,2.223755E0,7.949525E0,2.256134E0,4.2739868E-1,0E0,0E0,0E0,4.0489917E0,0E0,0E0,0E0,0E0,0E0,0E0,0E0,0E0,0E0,0E0,3.5779126E0,3.1601715E-1,0E0,0E0,0E0,8.797951E-1,0E0,0E0,0E0,0E0,0E0,0E0,1.111069E0,1.4496839E-1,0E0,0E0,2.2327704E0,0E0,0E0,1.4327269E0,1.2538795E0,9.980127E0,0E0,0E0,0E0,1.7472191E0,1.2957268E0,2.2345243E0,1.795404E-1,2.0904965E0,1.1065254E0,4.4860983E0,2.8366089E-2,0E0,0E0,1.5632691E0,0E0,2.9305146E0,0E0,0E0,0E0,0E0,1.7906516E0,0E0,0E0,0E0,0E0,2.1462421E0,0E0,2.9839413E0,0E0,0E0,9.566622E0,0E0,2.1952152E0,0E0,1.6526794E-1,4.6361895E0,0E0,0E0,0E0,0E0,0E0,0E0,0E0,2.0046313E0,0E0,0E0,0E0,0E0,0E0,0E0,0E0,0E0,0E0,0E0,0E0,0E0,0E0,0E0,0E0,0E0,0E0,0E0,0E0,0E0,0E0,0E0,0E0,0E0],"parents":[2147483647,0,0,1,1,2,2,3,3,4,4,5,5,6,6,7,7,8,8,9,9,10,10,12,12,13,13,14,14,15,15,16,16,17,17,18,18,19,19,20,20,21,21,22,22,23,23,25,25,26,26,27,27,28,28,29,29,30,30,31,31,33,33,34,34,35,35,36,36,37,37,39,39,40,40,43,43,46,46,47,47,48,48,49,49,50,50,51,51,52,52,53,53,54,54,55,55,56,56,58,58,59,59,61,61,62,62,63,63,64,64,65,65,66,66,69,69,72,72,73,73,74,74,75,75,77,77,78,78,79,79,80,80,81,81,82,82,83,83,84,84,85,85,86,86,87,87,88,88,89,89,90,90,91,91,92,92,93,93,94,94,95,95,100,100,101,101,103,103,104,104,106,106,108,108,110,110,113,113,115,115,116,116,117,117,118,118,119,119,121,121,123,123,124,124,126,126,129,129,130,130,131,131,132,132,133,133,134,134,135,135,136,136,139,139,142,142,145,145,147,147,148,148,155,155,156,156,158,158,165,165,167,167,168,168,172,172,175,175,178,178,181,181,182,182,183,183,186,186,197,197,198,198,199,199,200,200,201,201,202,202,203,203,204,204,206,206,210,210,211,211,212,212,213,213,214,214,215,215,217,217,219,219,226,226,234,234,247,247,248,248,249,249,250,250,253,253,254,254,257,257,258,258,259,259,261,261,262,262,263,263,264,264,268,268,279,279,280,280,284,284,291,291,292,292,295,295,298,298,299,299,300,300,304,304,305,305,306,306,307,307,308,308,309,309,310,310,311,311,314,314,316,316,321,321,326,326,328,328,331,331,333,333,335,335,336,336,344,344],"right_children":[2,4,6,8,10,12,14,16,18,20,22,-1,24,26,28,30,32,34,36,38,40,42,44,46,-1,48,50,52,54,56,58,60,-1,62,64,66,68,70,-1,72,74,-1,-1,76,-1,-1,78,80,82,84,86,88,90,92,94,96,98,-1,100,102,-1,104,106,108,110,112,114,-1,-1,116,-1,-1,118,120,122,124,-1,126,128,130,132,134,136,138,140,142,144,146,148,150,152,154,156,158,160,162,-1,-1,-1,-1,164,166,-1,168,170,-1,172,-1,174,-1,176,-1,-1,178,-1,180,182,184,186,188,-1,190,-1,192,194,-1,196,-1,-1,198,200,202,204,206,208,210,212,-1,-1,214,-1,-1,216,-1,-1,218,-1,220,222,-1,-1,-1,-1,-1,-1,224,226,-1,228,-1,-1,-1,-1,-1,-1,230,-1,232,234,-1,-1,-1,236,-1,-1,238,-1,-1,240,-1,-1,242,244,246,-1,-1,248,-1,-1,-1,-1,-1,-1,-1,-1,-1,-1,250,252,254,256,258,260,262,264,-1,266,-1,-1,-1,268,270,272,274,276,278,-1,280,-1,282,-1,-1,-1,-1,-1,-1,284,-1,-1,-1,-1,-1,-1,-1,286,-1,-1,-1,-1,-1,-1,-1,-1,-1,-1,-1,-1,288,290,292,294,-1,-1,296,298,-1,-1,300,302,304,-1,306,308,310,312,-1,-1,-1,314,-1,-1,-1,-1,-1,-1,-1,-1,-1,-1,316,318,-1,-1,-1,320,-1,-1,-1,-1,-1,-1,322,324,-1,-1,326,-1,-1,328,330,332,-1,-1,-1,334,336,338,340,342,344,346,348,-1,-1,350,-1,352,-1,-1,-1,-1,354,-1,-1,-1,-1,356,-1,358,-1,-1,360,-1,362,-1,364,366,-1,-1,-1,-1,-1,-1,-1,368,-1,-1,-1,-1,-1,-1,-1,-1,-1,-1,-1,-1,-1,-1,-1,-1,-1,-1,-1,-1,-1,-1,-1,-1],"split_conditions":[1E0,1E0,2.3E1,1E0,1E0,3E0,1E0,3E0,1.8E1,1E0,3.1E1,-9.606926E-2,1E0,1E0,1E0,5E0,3.791E4,1E0,1E0,1.4E1,4E0,2E1,1E0,8E0,2.2194277E-1,1E0,1E0,2.9E1,1E0,2.9E1,1E0,3.4E1,1.8863393E-2,1E0,4E0,1E0,3E0,4.1E1,2.658895E-1,1.75E4,1.3E1,2.1570006E-1,-2.6236111E-2,4.6E1,-9.2763186E-2,-7.262387E-2,1E0,1E0,1.5E1,2.0774E4,5E0,1.5E1,3.2E1,8E0,3E0,5.5E1,2.3858E4,-6.9001876E-2,2E0,3.7E1,2.6238624E-2,5E0,1E0,1E0,1E0,3.2E1,3.1E1,-6.947755E-2,5.2419312E-2,1E0,-8.87379E-2,2.282325E-1,1.8669E4,4E1,1E0,1E0,1.1515757E-1,2E1,2.1E1,2.0087E4,1E0,8E0,4.5E1,1E0,3.4272E4,8E0,3.8E1,1E0,2.2927E4,1E0,1E0,6E0,2.5E1,3.3E1,1.7E1,2.8E1,7.56898E-2,2.4641909E-2,1.6764063E-1,2.0997405E-1,3.9E1,2.9E1,-1.1529696E-1,1E0,1.1E1,-8.390437E-2,1E0,-1.1105379E-1,3.8E1,-8.8744596E-2,1.2E1,2.4712276E-1,6.456765E-2,3.6E1,2.2402649E-1,2E0,3E1,4E0,2.1162E4,5E0,1.2898634E-2,1E0,-1.9491961E-2,1.949E4,2.1716E4,1.8459241E-1,1.5E1,-1.0103523E-2,2.3777084E-1,1.9771E4,5.3E1,1E0,3.5E1,1E0,2.2336E4,3E0,5E0,-7.600135E-2,7.806977E-2,6E0,1.782112E-2,1.7302766E-1,1E0,1.7939757E-1,2.9622275E-5,1E0,4.7499623E-2,3.9E1,6E0,4.837739E-2,2.1171127E-1,-9.0202324E-2,5.6817986E-2,-9.054217E-2,5.8265746E-2,1E0,4E0,-6.641149E-2,3.7E1,-1.02196075E-1,-2.1855703E-2,3.0462658E-2,-1.13876835E-1,-2.2054473E-2,7.4890405E-2,5E0,6.817805E-2,1.3E1,2.1716E4,2.6061863E-2,-6.6320464E-2,1.15890406E-1,4E0,3.3258334E-2,-6.523078E-2,4.1E1,1.2106772E-1,1.2419601E-1,2.4E1,4.1571535E-2,2.268406E-1,2.5E1,1E0,3.2E1,1.5675111E-1,2.0537841E-1,2.2053E4,-9.13047E-2,-2.1217361E-2,2.691771E-2,1.6978477E-1,7.6444164E-2,-2.2139065E-2,-8.2787625E-2,-2.0048255E-2,7.0208564E-2,-9.4920844E-2,1E0,3.9E1,3.4E1,1.7E1,5E0,5.3E1,2.7E1,3E0,-8.883824E-2,4.3E1,1.7541707E-2,-1.0861552E-1,-1.0709363E-1,2.5096E4,2.3E1,5E1,5.3E1,1.8E1,3.8E1,5.750674E-2,1E0,-1.165534E-1,3.2E1,-7.962283E-2,-1.0025572E-1,2.86133E-2,3.067421E-2,-7.983485E-2,1.903596E-1,3E0,1.3337874E-1,-3.9589692E-2,-1.02874674E-1,-1.3181726E-2,2.2256862E-1,4.929422E-2,1.7486498E-1,4.2E1,-7.246422E-2,4.98673E-2,2.072398E-2,-7.191564E-2,2.9622892E-2,-8.320103E-2,1.3209581E-1,-8.863271E-2,3.4416173E-2,1.7990457E-1,-2.227862E-2,-8.6709E-2,4E0,1E0,1E0,2.9E1,1.5518281E-1,2.8261265E-2,6E0,5E0,7.876314E-2,-2.3683785E-2,1E0,1.6E1,2.6E1,5.703173E-2,7E0,2.8E1,1E0,3.8191E4,1.5047535E-1,-6.609496E-2,1.12612024E-1,4E0,2.3731112E-1,6.783082E-2,7.4388705E-2,-8.074861E-2,-1.1172631E-1,-2.2767577E-2,-7.59807E-2,3.53274E-2,-1.0130916E-1,-1.52616175E-2,1E0,4.9E1,-3.522435E-2,1.9293651E-1,-2.3991156E-2,3E1,-8.4298365E-2,4.701614E-2,4.6904188E-2,-7.997383E-2,1.7494345E-1,4.8857402E-2,3E0,1.7451E4,5.472295E-3,-1.01005554E-1,1E0,7.795832E-2,-1.08765475E-1,1E0,2.5E1,1.4E1,1.9183421E-1,2.9480908E-2,2.7156422E-2,2E0,3.2E1,1.4E1,2.098E4,3.3E1,1E0,4E0,5.7E1,-2.7619764E-2,-9.340867E-2,1E0,-8.014762E-2,2.1969E4,-1.1084898E-1,-2.68732E-2,2.5031207E-2,1.630258E-1,1.1E1,-1.485084E-2,-1.4117475E-2,-7.8474954E-2,-1.0423561E-1,2.1E1,-9.6729055E-2,1.7E1,-1.1174462E-1,-1.5594604E-2,3E0,-9.965099E-2,1E0,-1.1333884E-1,4E0,1.3E1,8.063495E-2,-6.6082805E-2,1.2552175E-1,2.9493136E-2,-1.0258367E-1,2.6441714E-2,-1.11382544E-1,1.3E1,1.0120322E-1,-8.3460085E-2,-1.1694258E-1,-4.7083974E-2,-2.2103507E-2,1.058201E-1,-1.9905377E-2,1.2982298E-1,-1.4223072E-2,1.2623559E-1,-4.2772558E-2,6.961616E-2,-6.0514178E-2,7.117022E-2,-7.584596E-2,1.8248288E-1,-7.606729E-2,4.3406278E-2,-1.1390062E-1,-5.7197124E-2,-1.00244604E-1,1.6943319E-2,-1.0099131E-1,-1.2681715E-2],"split_indices":[22,11,31,4,19,36,18,35,32,20,31,0,6,6,11,36,38,20,19,32,36,32,9,32,0,14,11,32,9,32,16,32,0,19,35,24,36,31,0,38,32,0,0,31,0,0,9,16,32,38,35,32,31,32,35,31,38,0,37,31,0,35,16,14,12,32,32,0,0,24,0,0,38,31,8,7,0,31,31,38,2,32,31,24,38,32,31,3,38,0,24,35,31,31,32,31,0,0,0,0,31,32,0,7,32,0,8,0,31,0,32,0,0,31,0,36,31,35,38,35,0,37,0,38,38,0,32,0,0,38,31,12,31,7,38,36,35,0,0,35,0,0,3,0,0,8,0,31,35,0,0,0,0,0,0,2,33,0,31,0,0,0,0,0,0,36,0,32,38,0,0,0,36,0,0,31,0,0,32,0,0,31,37,31,0,0,38,0,0,0,0,0,0,0,0,0,0,20,31,31,32,36,31,32,35,0,31,0,0,0,38,32,31,31,32,31,0,2,0,31,0,0,0,0,0,0,36,0,0,0,0,0,0,0,31,0,0,0,0,0,0,0,0,0,0,0,0,33,16,19,31,0,0,35,35,0,0,9,32,31,0,35,31,26,38,0,0,0,33,0,0,0,0,0,0,0,0,0,0,12,31,0,0,0,31,0,0,0,0,0,0,35,38,0,0,11,0,0,12,32,32,0,0,0,35,31,32,38,31,24,36,31,0,0,2,0,38,0,0,0,0,32,0,0,0,0,32,0,32,0,0,36,0,7,0,35,32,0,0,0,0,0,0,0,32,0,0,0,0,0,0,0,0,0,0,0,0,0,0,0,0,0,0,0,0,0,0,0,0],"split_type":[0,0,0,0,0,0,0,0,0,0,0,0,0,0,0,0,0,0,0,0,0,0,0,0,0,0,0,0,0,0,0,0,0,0,0,0,0,0,0,0,0,0,0,0,0,0,0,0,0,0,0,0,0,0,0,0,0,0,0,0,0,0,0,0,0,0,0,0,0,0,0,0,0,0,0,0,0,0,0,0,0,0,0,0,0,0,0,0,0,0,0,0,0,0,0,0,0,0,0,0,0,0,0,0,0,0,0,0,0,0,0,0,0,0,0,0,0,0,0,0,0,0,0,0,0,0,0,0,0,0,0,0,0,0,0,0,0,0,0,0,0,0,0,0,0,0,0,0,0,0,0,0,0,0,0,0,0,0,0,0,0,0,0,0,0,0,0,0,0,0,0,0,0,0,0,0,0,0,0,0,0,0,0,0,0,0,0,0,0,0,0,0,0,0,0,0,0,0,0,0,0,0,0,0,0,0,0,0,0,0,0,0,0,0,0,0,0,0,0,0,0,0,0,0,0,0,0,0,0,0,0,0,0,0,0,0,0,0,0,0,0,0,0,0,0,0,0,0,0,0,0,0,0,0,0,0,0,0,0,0,0,0,0,0,0,0,0,0,0,0,0,0,0,0,0,0,0,0,0,0,0,0,0,0,0,0,0,0,0,0,0,0,0,0,0,0,0,0,0,0,0,0,0,0,0,0,0,0,0,0,0,0,0,0,0,0,0,0,0,0,0,0,0,0,0,0,0,0,0,0,0,0,0,0,0,0,0,0,0,0,0,0,0,0,0,0,0,0,0,0,0,0,0,0,0,0,0,0,0,0,0,0,0,0,0,0,0,0,0],"sum_hessian":[6.512259E2,2.0200677E2,4.4921912E2,1.1504678E2,8.695999E1,1.7436977E1,4.3178214E2,6.1454075E1,5.359271E1,7.2753845E1,1.4206147E1,3.5262432E0,1.3910734E1,3.428677E2,8.8914406E1,2.4737276E1,3.6716797E1,3.585218E1,1.7740528E1,3.48501E1,3.7903748E1,5.0273967E0,9.178751E0,1.1485448E1,2.4252856E0,3.1322433E2,2.9643387E1,5.708868E1,3.182573E1,1.8239561E1,6.497716E0,3.4818012E1,1.898785E0,1.8894535E1,1.6957645E1,1.4618234E1,3.122295E0,1.9563135E1,1.5286966E1,2.3301435E1,1.460231E1,3.8273635E0,1.200033E0,6.6071258E0,2.5716248E0,1.1482522E0,1.0337196E1,2.6542023E2,4.7804108E1,1.808344E1,1.1559947E1,4.9407837E1,7.6808405E0,2.1128975E1,1.0696755E1,1.5335888E1,2.9036734E0,1.1750412E0,5.3226748E0,3.3724094E1,1.0939176E0,1.2675823E1,6.218713E0,1.0447419E1,6.5102267E0,7.936571E0,6.681663E0,1.2624612E0,1.8598336E0,1.744899E1,2.1141462E0,5.0153933E0,1.8286043E1,4.9733825E0,9.628927E0,5.466215E0,1.1409106E0,5.64658E0,4.6906157E0,6.324283E1,2.021774E2,2.7246347E1,2.0557762E1,3.0904515E0,1.4992989E1,7.421828E0,4.138119E0,3.3402832E1,1.6005007E1,3.6522417E0,4.028599E0,3.7526364E0,1.7376339E1,4.85824E0,5.838515E0,1.3760182E1,1.5757055E0,1.157434E0,1.7462394E0,3.1334162E0,2.1892586E0,8.123671E0,2.5600424E1,1.0532934E1,2.1428888E0,1.9716365E0,4.247076E0,8.3144245E0,2.1329944E0,2.5048234E0,4.005403E0,6.267523E0,1.6690478E0,4.572266E0,2.1093967E0,9.562513E0,7.8864756E0,4.4510646E0,1.3834978E1,3.6912735E0,1.2821091E0,7.618075E0,2.0108528E0,2.624468E0,2.8417473E0,1.8817322E0,3.7648482E0,1.620646E0,3.0699697E0,1.5433908E1,4.780892E1,6.596885E1,1.3620854E2,5.489812E0,2.1756536E1,1.3826591E1,6.731171E0,1.5732067E0,1.5172449E0,1.37578E1,1.2351888E0,1.036679E0,6.385149E0,2.5837371E0,1.554382E0,3.1436937E1,1.9658935E0,5.914814E0,1.0090193E1,1.4118903E0,2.2403514E0,2.742957E0,1.2856416E0,2.4798393E0,1.272797E0,2.810178E0,1.456616E1,1.1271495E0,3.731091E0,4.677793E0,1.1607214E0,1.0587332E0,1.2701448E1,1.1028225E0,1.086436E0,6.9420314E0,1.1816397E0,5.62597E0,4.9069643E0,1.091181E0,1.0517077E0,1.5279101E0,2.719166E0,1.0303828E0,1.1026117E0,2.5152984E0,1.4901048E0,1.8446038E0,2.7276623E0,1.3417875E0,8.220726E0,2.9629455E0,4.92353E0,2.9891293E0,1.4619353E0,6.263592E0,7.571386E0,2.61274E0,1.0785334E0,1.0765911E0,6.5414834E0,1.522696E0,1.1017722E0,1.7603495E0,1.0813977E0,1.578904E0,2.185944E0,1.2822558E1,2.61135E0,4.5565254E1,2.2436652E0,2.433715E1,4.1631695E1,4.9182087E1,8.702646E1,2.4183836E0,3.071428E0,1.2362413E0,2.0520294E1,5.911294E0,7.915297E0,3.9336786E0,2.7974923E0,1.1174956E1,2.5828438E0,5.1082077E0,1.2769414E0,1.5368429E1,1.6068508E1,4.1822762E0,1.7325377E0,8.379494E0,1.710699E0,1.0476191E0,1.762559E0,9.998825E0,4.567335E0,2.108776E0,1.6223148E0,5.14318E0,1.798851E0,4.2829685E0,1.3430012E0,1.654454E0,3.2525103E0,1.3271043E0,1.3920616E0,1.1987696E0,1.3165289E0,1.0612199E0,1.6664424E0,1.3102682E0,1.6526774E0,1.4853544E0,3.4381757E0,1.0258315E0,1.9632978E0,3.4032688E0,4.168117E0,6.877742E0,5.944816E0,1.5323262E0,1.0790236E0,1.5066224E1,3.0499031E1,1.0564473E0,1.187218E0,2.0573097E1,3.7640529E0,3.981289E1,1.8188059E0,4.04063E1,8.775788E0,3.1201328E1,5.582513E1,1.9504805E0,1.1209476E0,2.4212549E0,5.494042E0,2.2757444E0,1.6579342E0,1.0917188E0,1.7057736E0,9.999011E0,1.1759455E0,1.5714116E0,1.0114323E0,4.085801E0,1.0224066E0,5.5877457E0,9.7806835E0,1.4096678E0,2.7726083E0,2.041257E0,2.526078E0,1.8869818E0,1.3655285E0,1.912419E0,1.4908499E0,2.279876E0,1.888241E0,4.230797E0,2.6469452E0,1.4772389E0,4.467577E0,1.4001558E1,1.0646662E0,2.1363104E1,9.135927E0,1.1956255E1,8.616842E0,2.7540092E0,1.0100435E0,1.7451593E0,3.806773E1,3.824401E1,2.1622913E0,2.5234504E0,6.2523375E0,2.780504E1,3.3962877E0,5.4525448E1,1.299681E0,3.0875714E0,2.4064705E0,1.7676642E0,3.8200815E0,8.505495E0,1.2751881E0,1.0937983E0,1.4322797E0,3.2156715E0,1.0151253E0,1.0069193E0,1.640026E0,5.1668754E0,8.834682E0,3.473863E0,5.662064E0,1.0001159E1,1.9550962E0,4.4545746E0,4.162268E0,5.210933E0,3.2856796E1,2.4895308E1,1.33487015E1,1.045312E0,1.1169791E0,1.4561738E0,1.0672767E0,5.116651E0,1.1356865E0,1.7859192E1,9.945849E0,1.2796664E0,2.1166213E0,5.263857E1,1.8868822E0,1.1647214E0,1.2417492E0,2.0257304E0,1.7943511E0,1.0064168E0,2.2092547E0,7.6653414E0,1.1693414E0,4.0057473E0,1.6563168E0,1.567677E0,2.8868976E0,3.7051876E0,1.5057459E0,2.1031641E1,3.8636682E0,8.51108E0,4.8376217E0,4.466818E0,5.4790316E0],"tree_param":{"num_deleted":"0","num_feature":"39","num_nodes":"369","size_leaf_vector":"1"}},{"base_weights":[-1.5415241E-1,5.464288E-1,-4.838628E-1,-1.7163012E-2,1.2439063E0,-6.66634E-1,-1.2659958E-1,-3.8571346E-1,7.3377305E-1,-2.4990328E-1,1.3574562E0,-4.4612682E-1,-7.8721195E-1,-5.6922793E-1,4.1178E-1,-6.878727E-1,1.8775351E-1,-3.1801522E-1,1.4447001E0,-5.964536E-1,5.8676183E-2,1.0274639E0,1.7556361E0,-6.319915E-1,1.9648442E-1,-1.1028316E0,-6.5912133E-1,-6.620308E-1,1.1546972E0,9.5170873E-1,4.5969352E-2,-8.533301E-1,-3.8295832E-1,8.347403E-1,-2.8653562E-1,6.838087E-1,-8.5514456E-1,1.0097454E0,1.9240633E0,-7.5395636E-2,-1.2068164E-2,1.3848522E0,4.5797268E-1,1.2096002E0,2.327038E-1,-7.1076125E-1,1.2270358E0,-2.2908266E-1,1.354241E0,-1.18987955E-1,-5.865393E-1,-7.961586E-1,-3.9958963E-1,-2.8167003E-1,-8.6642534E-1,-6.289383E-2,1.870344E-1,3.2550067E-1,1.3625205E0,6.300469E-1,-3.311561E-1,-1.0115994E0,-3.1915274E-1,-3.6708405E-3,-8.005468E-1,1.32695E0,-8.7150976E-2,-6.2155455E-1,1.4754853E-1,-7.7716514E-2,1.4406829E0,-1.0672046E-1,-2.3289147E-1,1.7257105E-1,4.6523073E-1,2.232657E-1,1.005678E0,1.9010608E0,9.7597533E-1,-3.1848395E-1,9.196001E-1,7.8950804E-1,1.6322055E0,-8.3199656E-1,-1.9512506E-1,3.404632E-2,1.456493E-1,-7.365752E-1,1.6021049E-1,4.0116188E-1,2.1108489E-1,-9.0607524E-1,1.3842072E-1,-5.17948E-1,-9.8326296E-1,1.02203295E-1,-8.916249E-1,-7.2771436E-1,1.2047661E-1,-5.036433E-1,-1.0391216E0,-9.507052E-2,8.608809E-1,1.6352445E0,-2.5526077E-1,1.8088573E-1,1.440748E-1,-5.5796015E-1,4.7787243E-1,-1.1212251E-1,-4.637807E-2,-1.02387145E-1,9.017651E-1,7.253589E-1,-4.458511E-1,-1.04240336E-1,-2.4275485E-1,1.5782338E0,3.2972466E-2,-1.0794385E-1,1.5521355E-2,2.0295916E-1,4.7396384E-2,-8.013378E-2,6.400617E-2,1.7390569E-1,9.78711E-2,1.4882616E-2,1.6281232E-1,1.242743E0,2.3972364E-1,1.7621139E0,2.0494035E-2,4.997146E-2,-6.3626724E-1,1.5525986E-1,1.4195434E0,1.0427622E0,-1.6914761E-1,5.8680456E-2,1.8519829E-1,-1.0088197E0,-4.2507786E-1,1.993715E-2,-8.999029E-2,-1.0044696E-1,-1.6737133E-1,1.4561163E-1,-3.4523687E-1,9.3570435E-1,-6.427432E-2,-3.153729E-2,-1.00315824E-1,-2.7367387E-2,4.659739E-2,-8.1464016E-1,-6.7416936E-2,-1.0443796E-1,-2.8423575E-1,4.2704067E-1,-5.3317094E-1,-9.790964E-1,-2.2639962E-1,-1.0539073E-1,1.4187038E-1,7.235339E-1,-5.8784276E-1,-6.176097E-1,5.4327227E-2,-1.1640584E-1,-7.274438E-1,1.502376E0,-1.2471842E-1,1.7672287E0,1.5722265E-2,3.0746168E-2,-6.755671E-2,3.981673E-1,-8.241487E-2,-8.56558E-1,3.467725E-2,1.0613883E0,-7.80158E-2,-2.7836407E-2,2.2433918E-2,1.8813147E-1,-6.6392854E-2,-6.788479E-2,1.4607325E-1,-9.892598E-2,4.4490826E-1,3.275829E-2,-7.562442E-2,1.8295482E-1,6.514605E-2,6.5362287E-1,-5.2412146E-1,9.8285034E-2,-4.3832135E-1,1.5084054E0,4.8981622E-1,1.9833289E-1,3.221383E-2,5.7595915E-1,-6.3701695E-1,1.7180491E-2,-9.9509165E-2,1.3708912E-1,-5.696324E-1,1.6538647E0,4.489582E-2,1.6808075E-1,3.8086596E-1,-4.056784E-2,1.8067734E-2,-5.492499E-1,-1.1000701E0,-8.034673E-1,8.570627E-2,2.1617712E-1,-8.0728136E-2,-7.7479E-2,6.732162E-2,-8.760473E-2,6.2240976E-1,3.0364081E-2,1.10591784E-1,-3.4802067E-1,-1.0072511E0,4.0567842E-1,-6.711835E-1,7.924458E-2,-8.963752E-2,6.3154554E-1,-8.2068E-2,-1.0472536E-1,9.577512E-2,-1.13562845E-1,-5.798486E-1,-7.772632E-2,5.088312E-2,-2.4572784E-1,1.6257133E0,-9.899236E-2,1.8366237E-1,-2.0832859E-1,-9.6218824E-2,-2.077257E-1,-1.055158E-1,1.8988627E-1,2.9901525E-2,-8.858842E-2,9.806615E-2,1.1729069E0,2.1437242E0,7.8126115E-1,-4.3851236E-1,-9.516872E-1,-2.2300554E-2,-9.444576E-2,9.510814E-1,1.327606E-2,1.3690199E-1,-7.637838E-2,1.7575786E-1,8.487115E-2,1.5898516E-2,-8.7685674E-2,2.1060152E-2,-9.919057E-2,7.2269656E-2,1.7130582E-1,5.3247046E-2,7.122855E-3,7.280343E-2,1.368988E-1,-7.421746E-2,-1.7639816E-2,-8.634003E-2,-8.554065E-2,3.9344416E-3,2.1737598E-1,3.0963148E-3,9.504914E-2,-1.3752362E-1,-7.770795E-1,2.1752836E-2,-1.1458669E-1,-4.654293E-1,3.1092612E-2,-1.0132356E-1,-7.253535E-2,6.572007E-1,-3.0044872E-1,1.3155937E0,1.03624545E-1,-2.0382846E-2,-9.524562E-2,3.688151E-1,-1.11623995E-1,-2.622396E-1,8.2825744E-1,-4.142829E-1,-1.01377346E-1,2.9011065E-2,9.419303E-1,-1.056678E-1,1.124802E-1,-9.8772936E-2,-9.0268366E-2,9.469136E-2,7.197572E-1,2.3292212E-1,1.0970523E-1,-7.219313E-2,2.931678E-1,-9.174191E-2,1.7967302E-1,-7.6132156E-2,1.9251688E-1,2.702598E-2,6.630884E-2,2.3367758E-1,1.1104522E0,-3.6749493E-2,-8.031514E-2,3.0877305E-2,-4.6287134E-1,-1.08197235E-1,3.1236691E-2,1.4540285E-1,-8.12454E-2,6.2491428E-2,5.040158E-2,-5.9474375E-2,-3.5914093E-1,-9.449522E-2,2.3104632E-2,-8.092703E-2,1.1798475E0,-7.083913E-2,5.6945986E-1,-7.218577E-1,2.1785801E-2,1.7150615E-1,8.791893E-2,-1.719925E-2,3.3056214E-2,-6.806779E-2,-6.995701E-2,1.3537718E0,-7.920744E-2,2.6391318E-2,2.853743E-1,1.59185E0,-7.017323E-2,1.0879289E-1,-7.16888E-2,9.006732E-2,1.3728453E-1,-2.7836248E-2,6.3488746E-1,-6.351755E-2,-7.398885E-2,9.7980835E-2,8.7660514E-2,-8.0222785E-2,4.5871085E-1,1.8576995E-1,-2.669553E-3,-7.4260965E-2,-6.912118E-2,1.1464415E-2,1.5869585E-1,8.41152E-3,6.9252744E-2,1.966282E-2,-9.709414E-2,3.0050466E-3,1.5933885E-1,2.3879092E-2,-5.874876E-1,1.6896854E-1,2.0699929E-1,1.2710797E-2,-7.565291E-3,1.2728448E-1,1.0461487E0,-6.7441985E-2,3.2053709E-3,-8.699357E-2,-2.926421E-2,3.2168772E-2,1.2644048E-1,2.9809032E-2],"categories":[],"categories_nodes":[],"categories_segments":[],"categories_sizes":[],"default_left":[0,0,0,0,0,0,0,0,0,0,0,0,0,0,0,0,0,0,0,0,0,0,0,0,0,0,0,0,0,0,0,0,0,0,0,0,0,0,0,0,0,0,0,0,0,0,0,0,0,0,0,0,0,0,0,0,0,0,0,0,0,0,0,0,0,0,0,0,0,0,0,0,0,0,0,0,0,0,0,0,0,0,0,0,0,0,0,0,0,0,0,0,0,0,0,0,0,0,0,0,0,0,0,0,0,0,0,0,0,0,0,0,0,0,0,0,0,0,0,0,0,0,0,0,0,0,0,0,0,0,0,0,0,0,0,0,0,0,0,0,0,0,0,0,0,0,0,0,0,0,0,0,0,0,0,0,0,0,0,0,0,0,0,0,0,0,0,0,0,0,0,0,0,0,0,0,0,0,0,0,0,0,0,0,0,0,0,0,0,0,0,0,0,0,0,0,0,0,0,0,0,0,0,0,0,0,0,0,0,0,0,0,0,0,0,0,0,0,0,0,0,0,0,0,0,0,0,0,0,0,0,0,0,0,0,0,0,0,0,0,0,0,0,0,0,0,0,0,0,0,0,0,0,0,0,0,0,0,0,0,0,0,0,0,0,0,0,0,0,0,0,0,0,0,0,0,0,0,0,0,0,0,0,0,0,0,0,0,0,0,0,0,0,0,0,0,0,0,0,0,0,0,0,0,0,0,0,0,0,0,0,0,0,0,0,0,0,0,0,0,0,0,0,0,0,0,0,0,0,0,0,0,0,0,0,0,0,0,0,0,0,0,0,0,0,0,0,0,0,0,0,0,0,0,0,0,0,0,0,0,0,0,0,0,0,0,0,0,0,0,0,0,0,0,0,0,0,0,0,0,0,0,0,0,0,0,0,0,0,0,0,0,0,0,0],"id":3,"left_children":[1,3,5,7,9,11,13,15,17,19,21,23,25,27,29,31,33,35,37,39,-1,41,43,45,47,49,51,53,55,57,59,61,63,65,67,69,71,73,75,-1,-1,77,79,81,-1,83,85,87,89,-1,91,93,95,97,99,-1,-1,101,103,105,107,109,111,113,115,117,-1,119,-1,-1,121,-1,123,-1,125,-1,127,129,131,133,135,137,139,141,143,-1,-1,145,147,149,-1,151,153,155,157,159,161,163,165,167,169,-1,171,173,175,-1,177,179,181,-1,183,-1,185,187,189,-1,191,193,-1,-1,195,-1,-1,-1,-1,-1,197,-1,-1,199,-1,201,203,-1,205,207,209,211,213,-1,-1,215,217,219,-1,-1,221,-1,223,225,-1,-1,-1,-1,-1,227,229,-1,231,233,235,237,239,-1,-1,241,243,245,-1,-1,247,249,251,253,-1,-1,-1,255,-1,257,259,261,-1,-1,-1,-1,-1,-1,-1,-1,263,-1,-1,-1,-1,265,267,-1,269,271,273,-1,-1,275,277,-1,-1,-1,279,281,-1,-1,283,-1,-1,285,287,289,291,293,-1,-1,-1,-1,295,-1,-1,297,299,301,303,-1,-1,305,-1,-1,-1,-1,307,-1,-1,309,311,-1,313,315,-1,317,-1,-1,-1,-1,-1,319,321,323,325,327,-1,-1,329,-1,-1,-1,-1,-1,-1,-1,-1,-1,-1,-1,-1,-1,-1,-1,331,-1,-1,-1,-1,-1,-1,-1,333,335,-1,-1,337,-1,-1,-1,339,341,343,-1,-1,-1,345,-1,347,349,351,-1,-1,353,355,357,-1,-1,-1,359,-1,-1,-1,361,-1,363,-1,-1,365,-1,-1,367,-1,-1,-1,369,-1,-1,-1,-1,-1,-1,-1,371,-1,-1,-1,373,-1,375,377,-1,-1,-1,-1,-1,-1,-1,379,-1,-1,381,383,-1,-1,-1,-1,-1,-1,385,-1,-1,-1,-1,-1,387,-1,-1,-1,-1,-1,-1,-1,-1,-1,-1,-1,-1,-1,389,-1,-1,-1,391,-1,393,-1,-1,-1,-1,-1,-1,-1],"loss_changes":[1.4750319E2,8.0391945E1,2.8252777E1,3.1852346E1,1.5840759E1,7.2759933E0,3.5529102E1,1.3501206E1,2.8797045E1,2.466751E0,9.376419E0,1.2512037E1,6.7176666E0,1.3835617E1,1.326986E1,2.2338352E0,8.651892E0,9.250539E0,2.80962E0,3.330121E-1,0E0,9.326305E0,8.77597E0,1.2687382E1,1.2150537E1,1.6244087E0,4.4288254E0,5.8327446E0,6.968828E0,6.5469856E0,9.2911E0,2.3899517E0,3.1121686E0,1.111021E1,1.0694698E1,7.949318E0,1.19343E0,4.676365E0,5.1470184E-1,0E0,0E0,4.38686E0,7.592065E0,2.4535255E0,0E0,4.716156E0,2.4594831E-1,3.7586007E0,3.915285E0,0E0,2.3092923E0,3.985176E0,1.1974285E1,5.2542467E0,2.6318398E0,0E0,0E0,9.071194E0,7.518627E0,9.204478E0,4.984358E0,2.5184727E0,8.490554E0,3.9696987E0,1.0092149E0,1.8839798E0,0E0,4.2817855E0,0E0,0E0,1.5538282E0,0E0,2.525943E0,0E0,4.2061887E0,0E0,2.034534E0,9.460144E-1,1.3903675E1,2.4853034E0,4.758128E0,3.2130356E0,1.1122475E0,4.09536E0,2.4676328E0,0E0,0E0,1.0789132E0,7.871258E0,2.9211369E0,0E0,6.6473484E-2,6.339201E-1,4.8682775E0,1.8610649E0,5.330889E0,1.1983509E0,1.1155993E1,7.2619276E0,2.504939E0,4.4519424E-1,0E0,5.899039E0,2.4352875E0,9.614468E-1,0E0,3.4736738E0,3.664936E0,5.3560643E0,0E0,2.8356302E-1,0E0,7.000931E0,5.794426E0,4.147953E0,0E0,1.4582869E0,5.3159904E-1,0E0,0E0,2.7874165E0,0E0,0E0,0E0,0E0,0E0,4.3780794E0,0E0,0E0,7.095299E-1,0E0,2.6005402E0,3.795847E0,0E0,2.0393524E0,6.3102074E0,1.0209084E0,3.5971794E0,3.607648E-1,0E0,0E0,1.2033424E0,4.084074E0,2.3435469E0,0E0,0E0,2.4705796E0,0E0,5.1172996E0,3.7927628E-3,0E0,0E0,0E0,0E0,0E0,1.637228E0,4.760941E0,0E0,4.29244E0,4.834735E0,7.7550035E0,6.7059517E-1,2.070938E0,0E0,0E0,8.350885E0,2.6361227E0,2.178074E0,0E0,0E0,1.8519254E0,2.079627E0,4.642317E0,3.2070923E-1,0E0,0E0,0E0,3.8049588E0,0E0,6.133976E-1,7.936244E0,1.1430459E0,0E0,0E0,0E0,0E0,0E0,0E0,0E0,0E0,7.041827E0,0E0,0E0,0E0,0E0,2.219379E-1,1.3254286E0,0E0,4.490638E0,6.0830116E-2,2.8412586E-1,0E0,0E0,2.996437E0,3.4553576E-1,0E0,0E0,0E0,8.406714E-1,4.888172E0,0E0,0E0,1.9667228E0,0E0,0E0,1.7653406E0,4.829216E-1,3.1272988E0,4.993329E0,6.9773216E0,0E0,0E0,0E0,0E0,1.489275E0,0E0,0E0,3.8131566E0,9.3554974E-1,3.6119714E0,2.6917944E0,0E0,0E0,3.5545297E0,0E0,0E0,0E0,0E0,2.379533E0,0E0,0E0,4.969968E0,1.4087973E0,0E0,3.731863E0,3.464189E0,0E0,1.4123327E0,0E0,0E0,0E0,0E0,0E0,6.087041E0,3.223076E-1,3.3460126E0,1.3469722E0,2.3822689E-1,0E0,0E0,1.0074096E0,0E0,0E0,0E0,0E0,0E0,0E0,0E0,0E0,0E0,0E0,0E0,0E0,0E0,0E0,0E0,2.5895743E0,0E0,0E0,0E0,0E0,0E0,0E0,0E0,1.5108521E0,1.7022324E-1,0E0,0E0,1.1538277E0,0E0,0E0,0E0,5.290143E0,3.5995824E0,1.3324089E0,0E0,0E0,0E0,1.3590436E0,0E0,1.0280933E0,6.213191E0,1.2018766E0,0E0,0E0,4.122793E0,4.585942E0,3.1793385E0,0E0,0E0,0E0,2.704824E0,0E0,0E0,0E0,2.3132915E0,0E0,3.8947427E0,0E0,0E0,3.4062853E0,0E0,0E0,2.209804E0,0E0,0E0,0E0,4.9138707E-1,0E0,0E0,0E0,0E0,0E0,0E0,0E0,6.604935E-1,0E0,0E0,0E0,2.0472956E0,0E0,1.9717097E-2,1.2091606E0,0E0,0E0,0E0,0E0,0E0,0E0,0E0,1.0143948E0,0E0,0E0,9.026867E0,3.3591528E0,0E0,0E0,0E0,0E0,0E0,0E0,2.0183575E0,0E0,0E0,0E0,0E0,0E0,3.82482E0,0E0,0E0,0E0,0E0,0E0,0E0,0E0,0E0,0E0,0E0,0E0,0E0,0E0,8.650378E-1,0E0,0E0,0E0,4.1665137E-1,0E0,1.9096422E-1,0E0,0E0,0E0,0E0,0E0,0E0,0E0],"parents":[2147483647,0,0,1,1,2,2,3,3,4,4,5,5,6,6,7,7,8,8,9,9,10,10,11,11,12,12,13,13,14,14,15,15,16,16,17,17,18,18,19,19,21,21,22,22,23,23,24,24,25,25,26,26,27,27,28,28,29,29,30,30,31,31,32,32,33,33,34,34,35,35,36,36,37,37,38,38,41,41,42,42,43,43,45,45,46,46,47,47,48,48,50,50,51,51,52,52,53,53,54,54,57,57,58,58,59,59,60,60,61,61,62,62,63,63,64,64,65,65,67,67,70,70,72,72,74,74,76,76,77,77,78,78,79,79,80,80,81,81,82,82,83,83,84,84,87,87,88,88,89,89,91,91,92,92,93,93,94,94,95,95,96,96,97,97,98,98,99,99,100,100,102,102,103,103,104,104,106,106,107,107,108,108,110,110,112,112,113,113,114,114,116,116,117,117,120,120,126,126,129,129,131,131,132,132,134,134,135,135,136,136,137,137,138,138,141,141,142,142,143,143,146,146,148,148,149,149,155,155,156,156,158,158,159,159,160,160,161,161,162,162,165,165,166,166,167,167,170,170,171,171,172,172,173,173,177,177,179,179,180,180,181,181,190,190,195,195,196,196,198,198,199,199,200,200,203,203,204,204,208,208,209,209,212,212,215,215,216,216,217,217,218,218,219,219,224,224,227,227,228,228,229,229,230,230,233,233,238,238,241,241,242,242,244,244,245,245,247,247,253,253,254,254,255,255,256,256,257,257,260,260,276,276,284,284,285,285,288,288,292,292,293,293,294,294,298,298,300,300,301,301,302,302,305,305,306,306,307,307,311,311,315,315,317,317,320,320,323,323,327,327,335,335,339,339,341,341,342,342,350,350,353,353,354,354,361,361,367,367,381,381,385,385,387,387],"right_children":[2,4,6,8,10,12,14,16,18,20,22,24,26,28,30,32,34,36,38,40,-1,42,44,46,48,50,52,54,56,58,60,62,64,66,68,70,72,74,76,-1,-1,78,80,82,-1,84,86,88,90,-1,92,94,96,98,100,-1,-1,102,104,106,108,110,112,114,116,118,-1,120,-1,-1,122,-1,124,-1,126,-1,128,130,132,134,136,138,140,142,144,-1,-1,146,148,150,-1,152,154,156,158,160,162,164,166,168,170,-1,172,174,176,-1,178,180,182,-1,184,-1,186,188,190,-1,192,194,-1,-1,196,-1,-1,-1,-1,-1,198,-1,-1,200,-1,202,204,-1,206,208,210,212,214,-1,-1,216,218,220,-1,-1,222,-1,224,226,-1,-1,-1,-1,-1,228,230,-1,232,234,236,238,240,-1,-1,242,244,246,-1,-1,248,250,252,254,-1,-1,-1,256,-1,258,260,262,-1,-1,-1,-1,-1,-1,-1,-1,264,-1,-1,-1,-1,266,268,-1,270,272,274,-1,-1,276,278,-1,-1,-1,280,282,-1,-1,284,-1,-1,286,288,290,292,294,-1,-1,-1,-1,296,-1,-1,298,300,302,304,-1,-1,306,-1,-1,-1,-1,308,-1,-1,310,312,-1,314,316,-1,318,-1,-1,-1,-1,-1,320,322,324,326,328,-1,-1,330,-1,-1,-1,-1,-1,-1,-1,-1,-1,-1,-1,-1,-1,-1,-1,332,-1,-1,-1,-1,-1,-1,-1,334,336,-1,-1,338,-1,-1,-1,340,342,344,-1,-1,-1,346,-1,348,350,352,-1,-1,354,356,358,-1,-1,-1,360,-1,-1,-1,362,-1,364,-1,-1,366,-1,-1,368,-1,-1,-1,370,-1,-1,-1,-1,-1,-1,-1,372,-1,-1,-1,374,-1,376,378,-1,-1,-1,-1,-1,-1,-1,380,-1,-1,382,384,-1,-1,-1,-1,-1,-1,386,-1,-1,-1,-1,-1,388,-1,-1,-1,-1,-1,-1,-1,-1,-1,-1,-1,-1,-1,390,-1,-1,-1,392,-1,394,-1,-1,-1,-1,-1,-1,-1],"split_conditions":[1E0,1E0,1E0,1E0,3E0,1E0,1E0,1.9E1,1E0,1E0,1E0,1E0,3E0,3.3E1,1E0,4E0,1E0,1E0,1.8E1,2.4E1,5.8676183E-2,4E0,1.4E1,6E0,1E0,1E0,1.6E1,1E0,1E0,1.1E1,1.1E1,5E0,1E0,1E0,3.5E1,1E0,1E0,1E0,1E0,-7.5395636E-2,-1.2068164E-2,1.2E1,1.3E1,1E0,2.327038E-1,1E0,3E0,4E0,1.6E1,-1.18987955E-1,2E0,1E0,1E0,3E0,3E0,-6.289383E-2,1.870344E-1,3E0,3.1E1,1E0,5E0,1E0,1E0,5E0,5E0,1E0,-8.7150976E-2,4E0,1.4754853E-1,-7.7716514E-2,1E0,-1.0672046E-1,5E0,1.7257105E-1,8E0,2.232657E-1,3.1E1,3E0,1E0,1E0,1E0,1E0,3E0,1E0,1E0,3.404632E-2,1.456493E-1,1E0,9E0,4E0,2.1108489E-1,3E0,1.5E1,1E0,1E0,1E0,1E0,2.6E1,4E0,6E0,5E0,-9.507052E-2,1E0,4E0,1E0,1.8088573E-1,5E0,2.4E1,1.7E1,-1.1212251E-1,9E0,-1.02387145E-1,1E0,1E0,1E0,-1.04240336E-1,1.1E1,1E0,3.2972466E-2,-1.0794385E-1,1E0,2.0295916E-1,4.7396384E-2,-8.013378E-2,6.400617E-2,1.7390569E-1,3E0,1.4882616E-2,1.6281232E-1,1E0,2.3972364E-1,1E0,3E0,4.997146E-2,1E0,1.5E1,5E0,1E0,1E0,5.8680456E-2,1.8519829E-1,2E0,1E0,2.4E1,-8.999029E-2,-1.0044696E-1,1E1,1.4561163E-1,1E0,4E0,-6.427432E-2,-3.153729E-2,-1.00315824E-1,-2.7367387E-2,4.659739E-2,1E0,1E0,-1.0443796E-1,4E0,1E0,1E0,1E0,1E0,-1.0539073E-1,1.4187038E-1,1E0,1E0,1E0,5.4327227E-2,-1.1640584E-1,1E0,4E0,1E0,1E0,1.5722265E-2,3.0746168E-2,-6.755671E-2,1E0,-8.241487E-2,5E0,1E0,4E0,-7.80158E-2,-2.7836407E-2,2.2433918E-2,1.8813147E-1,-6.6392854E-2,-6.788479E-2,1.4607325E-1,-9.892598E-2,1E0,3.275829E-2,-7.562442E-2,1.8295482E-1,6.514605E-2,4E0,3E1,9.8285034E-2,5E0,1E0,2E0,1.9833289E-1,3.221383E-2,1E0,1E0,1.7180491E-2,-9.9509165E-2,1.3708912E-1,5E0,1E0,4.489582E-2,1.6808075E-1,1E0,-4.056784E-2,1.8067734E-2,1E0,1E0,9E0,1.3E1,1.6E1,-8.0728136E-2,-7.7479E-2,6.732162E-2,-8.760473E-2,5E0,3.0364081E-2,1.10591784E-1,1E0,1.5E1,1E0,1E0,7.924458E-2,-8.963752E-2,1E0,-8.2068E-2,-1.0472536E-1,9.577512E-2,-1.13562845E-1,2.3E1,-7.772632E-2,5.088312E-2,1E0,1E0,-9.899236E-2,5E0,1.6E1,-9.6218824E-2,1.7E1,-1.055158E-1,1.8988627E-1,2.9901525E-2,-8.858842E-2,9.806615E-2,1E0,1.4E1,5E0,1E0,3E0,-2.2300554E-2,-9.444576E-2,3E1,1.327606E-2,1.3690199E-1,-7.637838E-2,1.7575786E-1,8.487115E-2,1.5898516E-2,-8.7685674E-2,2.1060152E-2,-9.919057E-2,7.2269656E-2,1.7130582E-1,5.3247046E-2,7.122855E-3,7.280343E-2,1.368988E-1,1.6E1,-1.7639816E-2,-8.634003E-2,-8.554065E-2,3.9344416E-3,2.1737598E-1,3.0963148E-3,9.504914E-2,9E0,1.3E1,2.1752836E-2,-1.1458669E-1,9E0,3.1092612E-2,-1.0132356E-1,-7.253535E-2,1E0,3E0,1E0,1.03624545E-1,-2.0382846E-2,-9.524562E-2,1E0,-1.11623995E-1,1E0,8E0,1E0,-1.01377346E-1,2.9011065E-2,1E0,1E0,1E0,-9.8772936E-2,-9.0268366E-2,9.469136E-2,1E0,2.3292212E-1,1.0970523E-1,-7.219313E-2,1E0,-9.174191E-2,1.3E1,-7.6132156E-2,1.9251688E-1,1E0,6.630884E-2,2.3367758E-1,4E0,-3.6749493E-2,-8.031514E-2,3.0877305E-2,1E0,-1.08197235E-1,3.1236691E-2,1.4540285E-1,-8.12454E-2,6.2491428E-2,5.040158E-2,-5.9474375E-2,1E1,-9.449522E-2,2.3104632E-2,-8.092703E-2,1.9E1,-7.083913E-2,1.1E1,5E0,2.1785801E-2,1.7150615E-1,8.791893E-2,-1.719925E-2,3.3056214E-2,-6.806779E-2,-6.995701E-2,1.2E1,-7.920744E-2,2.6391318E-2,5E0,4E0,-7.017323E-2,1.0879289E-1,-7.16888E-2,9.006732E-2,1.3728453E-1,-2.7836248E-2,2E0,-6.351755E-2,-7.398885E-2,9.7980835E-2,8.7660514E-2,-8.0222785E-2,1E0,1.8576995E-1,-2.669553E-3,-7.4260965E-2,-6.912118E-2,1.1464415E-2,1.5869585E-1,8.41152E-3,6.9252744E-2,1.966282E-2,-9.709414E-2,3.0050466E-3,1.5933885E-1,2.3879092E-2,2.5E1,1.6896854E-1,2.0699929E-1,1.2710797E-2,3E0,1.2728448E-1,3E0,-6.7441985E-2,3.2053709E-3,-8.699357E-2,-2.926421E-2,3.2168772E-2,1.2644048E-1,2.9809032E-2],"split_indices":[22,11,21,21,34,2,11,32,4,18,21,18,36,32,16,36,2,9,32,32,0,36,32,34,11,17,32,16,0,32,32,34,7,26,32,7,14,16,24,0,0,32,32,0,0,14,36,34,32,0,36,16,7,36,36,0,0,36,32,2,36,13,7,36,36,19,0,36,0,0,12,0,36,0,32,0,32,36,16,2,7,18,36,0,0,0,0,24,32,33,0,33,32,11,26,12,14,32,36,34,36,0,17,33,24,0,34,32,32,0,32,0,2,9,0,0,32,7,0,0,7,0,0,0,0,0,33,0,0,0,0,19,36,0,16,32,34,24,24,0,0,36,7,32,0,0,32,0,24,34,0,0,0,0,0,7,24,0,36,18,17,24,0,0,0,12,24,2,0,0,7,36,7,9,0,0,0,9,0,34,7,34,0,0,0,0,0,0,0,0,12,0,0,0,0,34,32,0,34,19,36,0,0,24,7,0,0,0,36,18,0,0,7,0,0,3,13,32,32,32,0,0,0,0,34,0,0,17,32,17,0,0,0,0,0,0,0,0,32,0,0,0,17,0,36,32,0,32,0,0,0,0,0,7,32,36,0,33,0,0,32,0,0,0,0,0,0,0,0,0,0,0,0,0,0,0,32,0,0,0,0,0,0,0,32,32,0,0,32,0,0,0,24,33,16,0,0,0,24,0,17,32,0,0,0,9,14,12,0,0,0,0,0,0,0,0,0,32,0,0,24,0,0,36,0,0,0,24,0,0,0,0,0,0,0,32,0,0,0,32,0,32,34,0,0,0,0,0,0,0,32,0,0,36,36,0,0,0,0,0,0,36,0,0,0,0,0,7,0,0,0,0,0,0,0,0,0,0,0,0,0,32,0,0,0,33,0,36,0,0,0,0,0,0,0],"split_type":[0,0,0,0,0,0,0,0,0,0,0,0,0,0,0,0,0,0,0,0,0,0,0,0,0,0,0,0,0,0,0,0,0,0,0,0,0,0,0,0,0,0,0,0,0,0,0,0,0,0,0,0,0,0,0,0,0,0,0,0,0,0,0,0,0,0,0,0,0,0,0,0,0,0,0,0,0,0,0,0,0,0,0,0,0,0,0,0,0,0,0,0,0,0,0,0,0,0,0,0,0,0,0,0,0,0,0,0,0,0,0,0,0,0,0,0,0,0,0,0,0,0,0,0,0,0,0,0,0,0,0,0,0,0,0,0,0,0,0,0,0,0,0,0,0,0,0,0,0,0,0,0,0,0,0,0,0,0,0,0,0,0,0,0,0,0,0,0,0,0,0,0,0,0,0,0,0,0,0,0,0,0,0,0,0,0,0,0,0,0,0,0,0,0,0,0,0,0,0,0,0,0,0,0,0,0,0,0,0,0,0,0,0,0,0,0,0,0,0,0,0,0,0,0,0,0,0,0,0,0,0,0,0,0,0,0,0,0,0,0,0,0,0,0,0,0,0,0,0,0,0,0,0,0,0,0,0,0,0,0,0,0,0,0,0,0,0,0,0,0,0,0,0,0,0,0,0,0,0,0,0,0,0,0,0,0,0,0,0,0,0,0,0,0,0,0,0,0,0,0,0,0,0,0,0,0,0,0,0,0,0,0,0,0,0,0,0,0,0,0,0,0,0,0,0,0,0,0,0,0,0,0,0,0,0,0,0,0,0,0,0,0,0,0,0,0,0,0,0,0,0,0,0,0,0,0,0,0,0,0,0,0,0,0,0,0,0,0,0,0,0,0,0,0,0,0,0,0,0,0,0,0,0,0,0,0,0,0,0,0,0,0,0,0,0],"sum_hessian":[6.364279E2,2.0345714E2,4.329708E2,1.1306839E2,9.038874E1,2.8586172E2,1.4710909E2,7.617095E1,3.6897438E1,6.3005695E0,8.408817E1,1.02717255E2,1.8314445E2,8.070238E1,6.64067E1,4.9755386E1,2.641557E1,1.510414E1,2.1793299E1,4.6582203E0,1.6423491E0,4.7939026E1,3.6149147E1,7.9685936E1,2.3031315E1,5.0673492E1,1.3247096E2,7.716441E1,3.5379639E0,2.6173513E1,4.023319E1,3.1087578E1,1.8667807E1,1.0852072E1,1.55634985E1,5.176374E0,9.927767E0,1.3054556E1,8.738743E0,3.0603876E0,1.5978327E0,2.8574905E1,1.936412E1,2.0078697E1,1.6070448E1,7.703934E1,2.6466014E0,1.7427473E1,5.603842E0,4.224606E1,8.427434E0,8.53415E1,4.7129467E1,2.7803164E1,4.936125E1,1.0477571E0,2.4902067E0,1.1078572E1,1.509494E1,1.5522255E1,2.4710934E1,2.3292564E1,7.7950144E0,1.0311167E1,8.35664E0,8.594948E0,2.2571232E0,1.3620951E1,1.9425479E0,1.757367E0,3.4190068E0,6.87108E0,3.0566869E0,4.702337E0,8.35222E0,5.469744E0,3.2689984E0,1.10167465E1,1.7558159E1,7.3356514E0,1.2028469E1,1.150766E1,8.571037E0,6.1877335E1,1.5162E1,1.0548127E0,1.5917889E0,7.1779847E0,1.0249489E1,3.1571162E0,2.4467256E0,5.6758833E0,2.7515507E0,3.5831245E1,4.9510254E1,2.3725622E1,2.3403843E1,1.2798274E1,1.50048895E1,1.7182476E1,3.2178776E1,3.0448036E0,8.033769E0,1.290811E1,2.1868312E0,3.736523E0,1.1785732E1,1.9542654E1,5.1682787E0,2.0771769E1,2.5207944E0,5.0446277E0,2.750387E0,3.6511092E0,6.6600575E0,5.2231145E0,3.1335258E0,6.399706E0,2.1952424E0,7.5210223E0,6.0999284E0,1.4414419E0,1.9775649E0,1.9009023E0,1.1557844E0,1.0337472E0,7.318472E0,1.8968761E0,1.3721223E0,6.240971E0,4.775776E0,9.169544E0,8.388615E0,1.8919457E0,5.4437056E0,5.27473E0,6.7537384E0,9.033491E0,2.474169E0,2.1264215E0,6.444616E0,4.2102764E1,1.9774574E1,1.2361587E1,2.8004136E0,4.3608627E0,2.8171217E0,2.3481836E0,7.901305E0,2.156505E0,1.0006111E0,1.4008546E0,4.2750287E0,1.2913694E0,1.4601811E0,2.111682E1,1.4714428E1,4.507523E1,4.435024E0,1.59162655E1,7.809357E0,2.0267069E1,3.136774E0,1.155174E1,1.2465347E0,8.093052E0,6.9118376E0,1.5865444E1,1.3170321E0,2.1018606E1,1.1160171E1,4.548784E0,3.4849849E0,1.1670304E1,1.2378048E0,1.0498E0,1.1370312E0,9.802113E0,1.9836197E0,1.269899E1,6.843665E0,3.637429E0,1.5308496E0,1.3422942E0,1.1785E0,1.5678825E0,1.1825044E0,1.2813048E0,2.3698044E0,4.067869E0,2.5921884E0,1.6561116E0,1.4774144E0,4.26819E0,2.1315157E0,2.6982107E0,3.4017174E0,2.4468906E0,4.8715816E0,3.8715465E0,2.3694246E0,7.6213818E0,1.5481623E0,4.6144013E0,3.7742138E0,1.8342276E0,3.609478E0,1.6375024E0,3.6372278E0,4.87324E0,1.8804983E0,3.8158045E0,5.2176867E0,1.3808556E0,1.0933133E0,8.137672E0,3.3965088E1,1.1030305E1,8.744269E0,1.0588387E1,1.7731994E0,1.6808181E0,1.1363038E0,5.1634917E0,2.7378135E0,1.0481671E0,1.1083381E0,6.9899116E0,1.4126907E1,8.43392E0,6.280507E0,1.5007787E0,2.9342449E0,1.4099207E1,1.8170587E0,6.028321E0,1.7810364E0,1.3234021E1,7.033048E0,1.76054E0,1.3762339E0,4.25225E0,3.8408015E0,4.3576694E0,2.5541682E0,7.985305E0,7.880139E0,4.947636E0,6.2125344E0,2.9867382E0,1.5620456E0,2.1814244E0,1.3035605E0,6.1218724E0,5.548432E0,6.769E0,3.0331123E0,1.060455E1,2.094439E0,3.2937915E0,3.5498738E0,1.26137E0,2.376059E0,1.567238E0,1.0249503E0,1.4216698E0,1.276541E0,2.1676106E0,1.2341068E0,3.397351E0,1.4742305E0,2.5760515E0,1.295495E0,1.3305097E0,1.0389149E0,1.580762E0,3.0336392E0,1.829981E0,1.9442327E0,2.200118E0,1.4371098E0,3.433798E0,1.4394422E0,2.088843E0,3.1288438E0,6.263262E0,1.874411E0,3.0927752E1,3.0373378E0,1.6709826E0,9.359323E0,3.5032566E0,5.2410126E0,7.697828E0,2.8905592E0,1.6548036E0,1.0830098E0,3.6139426E0,3.3759692E0,1.1889318E1,2.2375891E0,5.558928E0,2.8749924E0,4.590082E0,1.6904248E0,9.726446E0,4.372761E0,2.875857E0,4.1571913E0,2.8986678E0,1.3535825E0,2.563151E0,1.2776505E0,1.1663545E0,1.3878137E0,5.0208926E0,2.9644122E0,3.30811E0,1.639526E0,3.285132E0,2.8367407E0,1.1515132E0,4.396919E0,5.2872214E0,1.4817786E0,1.9882057E0,1.0449066E0,3.1897407E0,7.41481E0,2.2780068E0,1.2718672E0,1.3967133E0,1.6369259E0,1.259397E0,1.8694466E0,2.694459E0,3.5688028E0,1.1123111E0,1.9250267E0,3.8887186E0,1.3522938E0,2.397461E0,5.300367E0,1.1835473E0,1.7070118E0,1.4149485E0,1.9610207E0,1.0127853E0,1.2248037E0,1.3379364E0,4.2209916E0,1.7385906E0,1.1364017E0,5.554411E0,4.172035E0,3.191206E0,1.1815548E0,1.4454076E0,1.4304494E0,1.3224295E0,1.2407215E0,3.9010413E0,1.1198514E0,1.5742208E0,1.7338891E0,1.3729935E0,1.4637471E0,3.6861057E0,1.6011158E0,1.6743997E0,1.5153409E0,1.3143387E0,1.3801203E0,2.5084243E0,1.3802944E0,1.1578028E0,1.239658E0,3.7626243E0,1.5377425E0,3.1211612E0,1.0998304E0,3.7840536E0,1.7703576E0,2.8337781E0,1.3382571E0,2.4360087E0,1.4650326E0,2.478147E0,1.2079587E0,1.4625374E0,2.321516E0,1.3651855E0,1.0708232E0,1.3840754E0,1.0940715E0],"tree_param":{"num_deleted":"0","num_feature":"39","num_nodes":"395","size_leaf_vector":"1"}},{"base_weights":[-1.403218E-1,5.024628E-1,-4.539406E-1,-1.0428703E-2,1.1113015E0,6.9538075E-1,-5.070219E-1,-3.6012226E-1,6.774083E-1,-2.3256761E-1,1.2096657E0,-9.058634E-2,1.0716829E0,-6.1918235E-1,-9.277539E-2,-6.54127E-1,1.7709363E-1,-2.9421094E-1,1.2987746E0,-5.657328E-1,5.4293483E-2,9.2615867E-1,1.547045E0,1.1885914E0,-1.8121953E-3,-6.5776366E-1,4.3586403E-1,-4.0946203E-1,4.2766726E-1,-7.155783E-1,9.4603375E-2,6.898009E-1,-5.1254135E-1,6.3293225E-1,-8.232897E-1,9.202616E-1,1.7056742E0,1.2857573E-3,-7.701885E-2,1.7415518E0,7.1726453E-1,7.7094173E-1,1.8372981E-1,8.007616E-1,1.9590883E-1,-4.4546908E-1,-7.4181944E-1,1.3288137E0,-2.6852366E-1,-5.9390473E-1,6.192577E-1,8.042042E-1,-3.7180656E-1,-9.508359E-1,-4.2430386E-1,-7.337707E-2,6.981745E-2,-9.889693E-2,1.2584597E0,-8.8823944E-1,5.9632033E-1,-7.525589E-2,1.3022984E0,1.5145478E-2,-9.7293895E-1,1.0940131E0,-1.7242126E-2,6.999825E-1,1.922665E-1,1.8807374E0,6.476868E-2,1.2103709E0,4.240477E-1,1.1077507E0,-6.288941E-2,1.0149175E0,-4.4001274E-2,-7.108708E-1,1.7522563E-1,-7.8681374E-1,-1.2991527E-1,1.8514644E-1,2.3002235E-2,-9.191677E-2,4.5636895E-1,-7.743012E-1,-2.0761743E-1,1.6921545E0,-2.1215567E-1,-2.1367541E-1,1.0834389E0,-2.778412E-2,-9.2825755E-2,4.8038498E-2,-1.06118016E-1,3.1096496E-2,-7.464344E-1,-9.775578E-2,7.831054E-1,2.0211402E-1,-2.3483208E-1,-1.0545844E-1,-2.1304962E-1,-6.3145795E-4,9.882667E-2,1.8212204E-1,4.346687E-2,-1.06119506E-1,-1.4162411E-2,1.2594502E0,-3.7889618E-3,-2.7021075E-2,1.3308673E-1,5.9010703E-2,2.0032446E-1,1.7849462E-1,9.2197657E-1,1.8875238E-1,1.4551988E0,8.98424E-3,1.2373208E0,2.9372305E-1,1.1948694E0,-2.6700247E-2,2.1009965E-2,-9.3541354E-1,-1.6751862E-1,6.743509E-1,-4.130766E-1,-8.5247976E-1,-4.797825E-1,-4.195975E-1,1.011979E0,1.2068727E-1,-3.9754722E-2,-8.7016666E-1,3.973892E-1,4.5957184E-1,-8.4107685E-1,2.018049E-1,5.3214382E-2,-8.792908E-2,5.153978E-1,5.8576065E-1,-8.9706406E-2,6.577949E-1,2.0639916E-1,-8.5188076E-2,4.4084498E-1,5.409212E-1,-7.3234844E-1,-1.08023934E-1,1.10594295E-1,-1.797464E-2,1.6364728E-1,-8.32608E-2,7.595398E-2,2.8309545E-2,-6.2123843E-2,1.68562E-1,1.3227855E-1,1.264255E0,-2.1494037E-1,-7.417698E-2,1.0378793E0,1.9003753E-1,3.0131167E-2,7.728632E-1,1.5861334E-1,6.546327E-2,-2.259148E-2,5.1732516E-1,1.5229914E0,-1.0663294E0,-6.058605E-1,3.0545035E-1,-1.02430694E-1,1.1640043E0,-7.453049E-2,-7.1039313E-1,1.0400798E-1,-9.041195E-1,-5.5815214E-1,1.12559274E-1,-5.6112564E-1,-8.13861E-1,1.448403E-1,4.0512816E-3,1.6894917E-1,-5.6250936E-1,-1.1187997E-1,-6.649813E-2,1.2853324E-1,1.3033669E0,-9.105776E-2,1.7730126E-2,-1.0351967E-1,-6.9809414E-2,1.6176252E-1,-1.617474E-2,1.0005859E-1,-7.9578705E-2,9.484557E-1,-3.1276423E-1,1.04316E0,7.151464E-2,1.0946226E-1,-1.5672814E-2,-8.658175E-2,1.0732099E-1,-5.701636E-1,-7.262152E-2,6.539095E-2,-8.413341E-3,1.5275222E0,-7.965081E-2,6.115618E-2,-2.7752227E-1,1.1230445E-1,4.171376E-1,1.576811E-1,1.2161894E-1,-3.3324247E-3,1.0227086E-1,-1.004049E-2,2.8552711E-2,1.8319322E-1,-1.1573972E-1,-4.6671018E-1,-6.960881E-2,-8.127444E-1,7.797715E-1,-1.6281822E-1,1.496051E0,5.8590945E-2,-5.1960886E-1,5.2769464E-1,1.0514981E-2,-8.2084143E-1,-9.090872E-1,-1.1433733E-2,1.1105868E0,-7.679864E-1,-7.992145E-1,-9.092186E-2,-1.39034735E-2,-1.0107797E-1,9.5158356E-1,-6.586727E-1,1.2542638E-1,-9.708668E-1,-1.9920861E-2,1.7170353E-1,1.2785308E0,8.431439E-2,-6.962481E-2,2.4552323E-2,1.3333969E-1,2.4521593E-2,-6.037229E-1,1.2366046E-1,-6.8388335E-2,-1.585052E-2,1.7159005E-1,5.270211E-2,-6.5097475E-1,5.6858355E-1,1.0311239E-1,-1.8844632E-2,3.0840749E-2,-7.171871E-1,7.0056275E-2,-8.182968E-2,-4.0116176E-2,-1.05583206E-1,-6.4281456E-2,1.1781969E0,-6.8798137E-1,1.13072194E-1,1.7941175E-1,1.1666554E-2,-6.3783586E-2,7.5068116E-2,-8.690812E-2,2.9831884E-2,-2.8046934E-2,1.16474114E-1,-9.7368814E-2,-3.727163E-3,-6.199185E-1,-9.296072E-1,2.1269454E-2,1.5024783E-1,-8.999594E-1,4.813147E-1,1.2085808E-1,-9.249101E-1,-7.5144196E-1,5.6273186E-1,1.675316E-1,-3.9104754E-3,-1.5339141E-2,-7.860135E-2,-7.5257935E-2,5.666627E-1,-1.0523584E-1,-2.1147508E-2,5.10343E-1,1.752937E-1,-8.628786E-2,1.2482762E-1,-7.511964E-2,-1.1208612E-2,-8.633402E-1,1.1179437E-1,1.3855302E-1,-7.003859E-2,-1.1034504E-2,-8.575334E-2,-7.166164E-2,7.9289615E-2,1.7934851E-1,-3.2819305E-2,-9.641723E-2,2.1280652E-2,-1.0032091E-1,-2.1972178E-1,-9.45242E-1,-5.6504315E-1,-1.0729557E-1,-3.3866206E-1,-1.136754E-2,8.340854E-2,1.1887473E-1,-7.572503E-2,-1.003376E0,2.6561365E-2,-9.2672564E-2,-3.370306E-1,1.256411E0,-8.5265756E-2,-2.0455584E-2,1.171597E-1,1.3921785E-1,-8.25741E-2,-4.3119416E-2,-1.05670206E-1,-6.9333576E-2,7.551844E-2,3.266112E-2,-6.338835E-2,2.0074952E-2,-8.1756145E-2,-8.488979E-2,-1.07434474E-1,-1.0064907E-1,4.7530036E-2,-8.737451E-2,2.4855226E-2,-1.1195699E-1,-6.1734837E-2,2.240162E-3,-6.2277462E-2,1.9260941E-1,-1.0139371E-2],"categories":[],"categories_nodes":[],"categories_segments":[],"categories_sizes":[],"default_left":[0,0,0,0,0,0,0,0,0,0,0,0,0,0,0,0,0,0,0,0,0,0,0,0,0,0,0,0,0,0,0,0,0,0,0,0,0,0,0,0,0,0,0,0,0,0,0,0,0,0,0,0,0,0,0,0,0,0,0,0,0,0,0,0,0,0,0,0,0,0,0,0,0,0,0,0,0,0,0,0,0,0,0,0,0,0,0,0,0,0,0,0,0,0,0,0,0,0,0,0,0,0,0,0,0,0,0,0,0,0,0,0,0,0,0,0,0,0,0,0,0,0,0,0,0,0,0,0,0,0,0,0,0,0,0,0,0,0,0,0,0,0,0,0,0,0,0,0,0,0,0,0,0,0,0,0,0,0,0,0,0,0,0,0,0,0,0,0,0,0,0,0,0,0,0,0,0,0,0,0,0,0,0,0,0,0,0,0,0,0,0,0,0,0,0,0,0,0,0,0,0,0,0,0,0,0,0,0,0,0,0,0,0,0,0,0,0,0,0,0,0,0,0,0,0,0,0,0,0,0,0,0,0,0,0,0,0,0,0,0,0,0,0,0,0,0,0,0,0,0,0,0,0,0,0,0,0,0,0,0,0,0,0,0,0,0,0,0,0,0,0,0,0,0,0,0,0,0,0,0,0,0,0,0,0,0,0,0,0,0,0,0,0,0,0,0,0,0,0,0,0,0,0,0,0,0,0,0,0,0,0,0,0,0,0,0,0,0,0,0,0,0,0,0,0,0,0,0,0,0,0,0,0,0,0,0,0,0,0,0,0,0,0,0,0,0,0,0,0,0,0,0,0,0,0,0,0,0,0,0,0,0,0,0,0],"id":4,"left_children":[1,3,5,7,9,11,13,15,17,19,21,-1,23,25,27,29,31,33,35,37,-1,39,41,43,-1,45,47,49,51,53,55,57,59,61,63,65,67,-1,-1,69,71,73,-1,75,-1,77,79,81,83,85,87,89,91,93,95,-1,-1,97,99,101,103,-1,105,-1,107,109,-1,111,-1,113,-1,115,117,119,-1,121,123,125,127,129,131,-1,-1,-1,133,135,137,139,141,143,145,147,-1,-1,-1,149,151,-1,153,-1,155,-1,157,-1,-1,-1,-1,-1,-1,159,-1,-1,-1,-1,-1,-1,161,163,165,-1,167,169,171,-1,-1,173,175,177,179,181,183,185,187,-1,-1,189,191,193,195,-1,-1,-1,197,199,-1,201,-1,-1,203,205,207,-1,209,-1,-1,-1,-1,-1,-1,-1,211,213,215,217,219,-1,-1,221,-1,-1,-1,223,225,227,229,231,-1,233,235,237,-1,239,241,-1,243,245,247,-1,-1,249,-1,-1,-1,251,-1,-1,-1,-1,-1,-1,-1,-1,253,255,257,259,-1,-1,-1,-1,261,-1,-1,-1,263,-1,-1,265,-1,267,-1,-1,-1,-1,-1,-1,-1,-1,269,271,273,275,277,279,281,283,285,-1,287,289,-1,291,293,295,297,-1,-1,299,301,303,305,-1,-1,307,309,-1,-1,-1,-1,311,-1,-1,-1,-1,-1,313,315,-1,-1,-1,317,-1,-1,319,-1,-1,321,323,-1,-1,-1,-1,-1,-1,-1,-1,-1,-1,-1,325,327,-1,-1,329,331,333,335,337,339,-1,-1,-1,-1,-1,341,-1,-1,343,-1,-1,-1,-1,-1,345,347,-1,349,-1,-1,-1,-1,-1,-1,-1,-1,-1,351,353,355,-1,357,-1,-1,-1,-1,359,-1,-1,361,363,-1,-1,-1,-1,-1,-1,-1,-1,-1,-1,-1,-1,-1,-1,-1,-1,-1,-1,-1,-1,-1,-1,-1,-1,-1],"loss_changes":[1.2548219E2,6.3782642E1,2.5860641E1,2.7143637E1,1.2625725E1,1.2346824E1,1.8538277E1,1.1929103E1,2.3348124E1,2.169447E0,6.9056244E0,0E0,2.0276012E0,1.3099899E1,1.4424111E1,2.3016033E0,9.985715E0,8.19957E0,2.03228E0,6.64261E-1,0E0,7.2439156E0,7.2145844E0,2.6849136E0,0E0,5.0956116E0,7.7199373E0,1.0662841E1,1.0291592E1,2.679222E0,2.795149E0,7.3235574E0,5.608096E0,6.778717E0,1.6645179E0,2.9012241E0,8.5803986E-1,0E0,0E0,2.2348213E-1,5.47171E0,6.4260144E0,0E0,2.063634E0,0E0,1.4744629E1,5.853691E0,2.6352558E0,3.8983698E0,3.080988E0,8.154167E0,6.735302E0,2.139703E0,4.312708E0,3.236787E0,0E0,0E0,6.695569E0,1.1179938E1,8.4308624E-1,8.762398E-1,0E0,1.2713614E0,0E0,5.21121E-1,2.3816366E0,0E0,2.4191325E0,0E0,6.293297E-2,0E0,8.2268524E-1,6.3968625E0,1.2284851E0,0E0,8.098717E-1,2.383004E-1,7.45224E0,8.319622E0,3.649704E0,5.7221537E0,0E0,0E0,0E0,3.143987E0,3.8665695E0,7.222877E0,4.1056728E-1,3.2742193E0,3.67298E0,6.205471E0,3.473304E0,0E0,0E0,0E0,4.3022494E0,3.801425E0,0E0,3.8880246E0,0E0,3.053832E0,0E0,8.1024396E-1,0E0,0E0,0E0,0E0,0E0,0E0,5.014673E0,0E0,0E0,0E0,0E0,0E0,0E0,4.9361687E0,5.331996E0,1.9751282E0,0E0,2.2120667E-1,7.3154366E-1,7.310972E-1,0E0,0E0,1.2484283E0,8.196559E0,5.658619E0,6.4373465E0,1.9964066E0,5.5620613E0,3.1179466E0,2.257405E0,0E0,0E0,1.610981E0,3.738553E0,1.1042364E1,1.8936954E0,0E0,0E0,0E0,5.691074E0,1.1727672E0,0E0,6.7136145E0,0E0,0E0,2.9464152E0,1.6351789E0,2.0565963E-1,0E0,3.5705197E0,0E0,0E0,0E0,0E0,0E0,0E0,0E0,2.300445E0,3.450531E0,2.2311146E0,4.9142647E0,1.226306E0,0E0,0E0,2.106783E0,0E0,0E0,0E0,1.2714225E0,1.040101E0,1.1040573E0,1.5853662E0,3.0821948E0,0E0,3.3067408E0,2.1362836E0,1.1260891E0,0E0,4.3897247E-1,1.0368428E1,0E0,4.025036E0,9.342699E-1,4.7709255E0,0E0,0E0,4.364055E0,0E0,0E0,0E0,3.8768778E0,0E0,0E0,0E0,0E0,0E0,0E0,0E0,0E0,3.374816E0,8.8462687E-1,4.6945667E-1,4.395122E0,0E0,0E0,0E0,0E0,4.5975924E-2,0E0,0E0,0E0,5.811653E-1,0E0,0E0,5.73002E0,0E0,1.6730258E0,0E0,0E0,0E0,0E0,0E0,0E0,0E0,0E0,1.3173244E0,3.5796924E0,1.945889E0,4.601738E0,5.888185E0,2.6978588E0,2.010075E0,1.5451645E0,2.1020918E0,0E0,1.1949196E0,2.3883057E-1,0E0,8.9236736E-1,4.510603E0,2.907095E0,6.2222447E0,0E0,0E0,2.6460783E0,1.23541355E-1,2.9487267E0,3.7095547E-1,0E0,0E0,2.2994585E0,5.978062E0,0E0,0E0,0E0,0E0,1.7739618E-1,0E0,0E0,0E0,0E0,0E0,2.0783525E0,3.085504E0,0E0,0E0,0E0,2.9439735E-1,0E0,0E0,2.5817246E0,0E0,0E0,5.826927E0,1.6909869E0,0E0,0E0,0E0,0E0,0E0,0E0,0E0,0E0,0E0,0E0,0E0,1.636208E0,1.8559265E-1,0E0,0E0,1.8424301E0,7.2752637E-1,4.453781E0,2.2638302E0,2.0407629E-1,8.261204E0,0E0,0E0,0E0,0E0,0E0,2.5273333E0,0E0,0E0,6.7541447E0,0E0,0E0,0E0,0E0,0E0,3.536234E-1,